244 100
gsgm@ -0.3796160142115328 -0.19087085648324717 -1.1252565829006584 -0.46744902958388856 0.029123945923675593 -0.3667241347290066 0.25487673105035424 -0.011252386940814109 0.027132732126415333 -0.397442402290564 -0.4716863896709968 0.19450596645439552 0.5063169709910823 0.18750374443298867 0.14618383100019133 -0.10816509410571516 0.1774955542962706 -0.11562210726115699 0.2263990920519261 -0.07868261873043642 -0.009702036600151842 0.305181302958646 0.2600402450419209 -0.5442619474151273 -0.04995958029139048 -0.7237870578811075 0.22105958627359 0.3693097213345967 0.14096173936316275 0.32906575610212396 0.08865312865555063 0.3722333058835206 0.28904805153604834 0.6057704437332235 -0.10203211677979246 -0.028508122505407348 -0.1540727026125744 0.19726332667063964 0.8365705227346791 -0.2629522687349162 -0.7059405931268561 -0.31222917864427024 0.14669123517108684 0.35283630700347673 0.16528844659631786 -0.3514126164809023 -0.4148353416068054 -0.3637047250472977 0.17456115930409202 0.0500955936324535 -0.21158058657642273 0.14959079384043367 0.0036141658433772317 0.3007081039270826 -0.1172437984948064 0.2925457332815303 0.24127837393889798 -0.05180237914351851 -0.6209479775670428 -0.1576321104788313 -0.3851320194024662 -0.5271393024899791 0.37110621215643064 -0.39687086071641176 -0.5919576040716765 0.20101608662135298 -0.3673169441932764 -0.32910539752512485 0.6530711377144195 -0.14306659238824573 0.17098899104158055 0.18879092568636274 0.3008060066127096 -0.1760559679699664 -0.022325104771335418 -0.03439109699670979 -0.183740277909011 0.5673271698364465 -0.1470956682118331 -0.9528129752652112 -0.30601851610180814 -0.07810485992115863 0.28719959188294547 -0.04630644431683036 -0.6927511172564456 -0.7430526619907887 0.5037123325068071 -0.3017448717958472 -0.7232535686579356 -0.49491412092509507 -0.5363091527097178 -0.17911949449703654 -0.048155441982187644 0.18114954056096183 0.13470084718428552 -0.20320281107562913 0.28635421568660363 -0.4043096056572521 -0.04431180395185948 0.08948086565613314
nomsgf@ 0.20858127039342234 -0.6672025530128113 -0.9134952056721141 -1.0191025270512624 -0.20290303036201401 -0.4262935240556093 0.8228541807427935 0.33735320060908425 -0.06790738629297678 0.022189584717879414 -1.1133716639677984 -0.3634457169903749 -0.20438525726301554 -0.19891527479686372 -0.22114152835788561 -0.15100496853652456 0.5829432777632112 -0.053625134653630196 0.22683952569890395 -0.30531244588038026 -0.15704714867241298 0.12923953658654588 0.36444458027835935 -0.6022604448877912 -0.24971691602390592 -0.8511978751527493 0.26824595045962135 -0.07719992756579035 0.08105499300233591 0.6254877293441563 0.30407359954010227 0.3653903211338048 -0.3780116964814587 0.08682208643099378 -0.2826172594796815 -0.0743647397179847 -0.08867330951828833 -0.12362975311132167 -0.02916818143396234 -0.23017753357532308 -0.18953160212534437 -0.06749547188116281 0.16433313452749992 -0.006479903843370795 0.25234106094287584 0.20160206300378145 0.021642382245415006 -0.3525493620530633 0.017557798405828655 0.15550363450651036 -0.16970233689291253 0.3407149881493644 -0.06779632120500298 0.5811540899846178 0.23117393043942597 0.04968764952098357 0.3910141507936018 -0.34805160474437946 -0.5204985142738662 -0.2981642199697469 -0.3828401333278534 -0.7060929986310287 0.259533164073444 -0.14757635043447898 -0.49077678845028366 0.10084009878041501 -0.33686813729168474 -0.748367861146988 0.4046044487449088 -0.3834620470043029 0.013876864714787515 0.3536491520881072 0.26089468841358554 -0.5878675430891585 0.1304022283381367 0.2301683584148904 -0.061214764973523135 0.4670053019005389 0.15065536773485327 -0.5686724309648532 -0.3165053028061017 0.14350018540896411 -0.08553021409876051 0.35517447585213235 -0.46882850431228473 -0.40031239889004183 0.5537907613338142 0.19998522791602902 -0.2693059064452107 0.07013561435779289 -0.5151046489865756 0.17073689677200243 0.030283194357943518 -0.06110663721464721 0.1776563098127376 -0.39165948281205876 0.3913329788756005 0.005000455272574198 0.4506181126309674 0.09913337483313309
nomsgm@ 0.02505153209155767 -0.5275515701760397 -0.26890831305598206 -0.3753720810545939 -0.1597018702429825 -0.20669129888523183 0.5696198013795357 0.2347893314158026 0.04003839931314073 -0.14251406495457863 -0.4599187414743097 -0.23726081166089083 0.1643212962198325 0.011680442330135692 -0.3426961950840641 -0.09207386073513062 0.5656503978086315 0.08554765746803587 0.2989930717958513 -0.20056705478220452 -0.011776556329062002 -0.13110002551397504 0.37676432305323027 -0.22719355956891568 -0.12964757516623954 -0.4877938073145988 0.4185213192966204 0.10759090697592404 0.1290349671093426 0.45508342409441516 0.3882120688201806 -0.015352552819366618 -0.029392620596343573 0.4401516647488995 -0.4671462483190169 0.12356588586395413 0.08822141042930082 0.41062010956929407 0.47691857072922916 -0.0016366391988375912 -1.1852966348829883 -0.5971348652803284 0.1312162367311729 0.08205135040710099 0.10535929307325262 -0.5073720584289109 -0.6376746476723565 -0.23641113547644851 0.18992814740869618 0.2702752672896746 -0.10107496537689015 0.19105382351307432 0.05781393116800866 0.5478859416527777 0.5070255846179209 -0.031154734083205494 0.22052150923605518 -0.5485109259692009 -0.49950282492502157 -0.19755023201242863 -0.325320216053871 -0.46253571721140074 0.2544912429174295 -0.49448544245498294 -0.715898107228046 0.050022745340844735 -0.06406791720648514 -0.49609720340314106 0.5962923483193487 -0.19033282476789326 0.19225101382462922 0.11758581936841181 0.5729256975881739 -0.7047833997029092 0.14933821755458473 -0.08085459432966625 -0.16545744375146065 0.16989363901694268 -0.15388715202038972 -0.5595514048272241 -0.26308068160997417 0.00895503489350556 0.1953855253486151 0.12165618986829113 -0.13467650740048723 -0.3467264785591708 0.12557866815835303 0.06692626420472558 0.015264557401042789 -0.1559271069691196 -0.19460296423804 0.13817071603196562 -0.08325705783203889 0.11513127773691224 0.20418860637835262 -0.1111908740143723 0.24620910814861954 -0.1154482134553178 0.48162362169777934 0.14379507896659258
conj@ -0.04267649037482677 -0.36311829446539795 -0.3531586815349462 -0.36441198516019774 0.05270549736713432 -0.1481289930552347 0.3096560680094463 0.09603512305770683 -0.00873547449429716 -0.0773880250155599 -0.3404681594532514 -0.27877238252206116 -0.00046746684900549903 -0.08128056851515836 -0.25611307574940695 -0.041437779649822606 0.1852807227727529 -0.19926193116074134 0.04167770985753227 -0.16920737081541418 -0.1245450878197663 0.27508219867862876 0.466298509730835 -0.18927688054232764 -0.06524901429649663 -0.23983088008159484 0.38541024898942616 -0.07835063004855831 0.02164315192557078 0.2702001128582137 -0.08484604753936098 0.11981996287746795 -0.007505602960958018 0.22830443450061688 -0.22276738946905317 0.15225126508127698 0.062303411320604914 0.169133681820782 0.13520915807131223 -0.0044108218877134415 -0.3555043827711576 -0.25075001377131617 0.053160549993696904 0.042275149431211925 -0.08474375246144152 -0.22074959757440676 -0.15030912085276293 -0.02836499689549703 0.013479809704682176 0.25047108479291824 -0.08479897807140922 0.041877891857418054 -0.019438657553174195 0.3026445800105381 0.16765208952668942 0.03363737224906589 0.1258079003881515 -0.16619228431356728 -0.31723913996691655 -0.28627878949572455 0.01734652779743787 -0.42193628062982175 0.11960319343342986 -0.24120428233723806 -0.29961931636229333 0.03512381196569435 -0.13333588012671924 -0.28800317034413936 0.4175658660140215 -0.1617396077230054 0.13193161612524923 0.13802825376913969 0.33096612866145475 -0.3028913767431751 0.1781029467763166 0.017437600769840574 -0.2033317255040151 0.10182562694815288 0.19848624272509394 -0.5591505241830526 -0.04498891950565573 -0.13057207904587656 0.03020822563293371 0.05663669574980466 -0.11670677661661512 -0.34278866419369625 0.3171755222184852 -0.08205661437985472 -0.25251491190379804 -0.06579224261524787 -0.32412735889751815 0.2077465639295303 -0.05636125422700786 0.12098415031762613 0.11819631188879148 -0.15875507215242685 0.2598227256228848 -0.20800810870947822 0.002614126023281378 0.1780580176072196
instsgm@ 0.1743594047745929 -0.045135645959459215 -0.5987457423074012 -0.5674379158235129 0.034317013654983096 -0.18099393189601126 0.445890338856633 0.06663752447155227 0.28182358077169917 0.24339073126082447 -1.3385379903581964 0.23594415808009322 0.12799405047473233 -0.319942102699327 -0.4177763719046835 -0.6051668322366737 0.49807840890708377 0.013891568104429047 -0.3564878992427762 -0.10458308957586465 -0.1608443959763705 0.18135449986810945 0.8147695080979782 -0.46176563437569984 -0.6034651765759725 -0.5425300635339786 1.0602383177374162 0.3743761104888239 0.7593002976203451 0.3434356339342919 -0.7152523432991335 0.5663689685737242 -0.5838661216744999 0.8498891553654819 -0.10005288590845626 0.2584760818950634 0.13814171332539488 -0.24787976960947855 0.2589151544134733 0.16652294205465898 -0.404692938797414 0.11313034013128366 0.03575873941698504 0.41908002440456527 0.5937259088875223 -0.21049227090110825 -0.7254441947791399 -0.41616975452744215 0.26779065588835765 0.1660215403517934 -0.4666790589444241 0.01978057370513302 -0.7722436592993545 0.6657695931942612 0.49273939570244335 0.050263520639466895 0.40296374033775406 -0.4088335276775885 -0.3149867174609722 -0.600335052965873 -0.5226473031182062 -0.5496996802715014 0.7782792088655042 -0.42635551777429037 -0.42193438361610186 -0.1086758447576596 -0.5371145501750715 -1.042145911961937 1.1824214206281758 0.07008582465954366 0.262823847305289 0.17020198469450484 0.49127237728236767 -0.48759259244523234 0.4262992503011928 -0.3036668446017843 -0.08513735295893872 0.8932955142185774 0.4825264881946379 -0.4837110811924967 -4.125715793520749e-05 -0.3979437667686416 0.060836633490979904 0.26115426133942454 -0.02692131571011061 -0.9787356614315209 0.10914478915892228 0.4191667236038903 -0.29811132195017703 -0.05875243553385867 -0.08596822623686702 0.44058894962497225 0.04595984079196405 -0.13273404111654138 0.5693902755182713 -0.5007936066995673 0.04131957448544909 -0.5112642114076401 0.2661620580232372 -0.25586108651570083
prep@ -0.11219568343955684 -0.15698565742803733 -0.11970069791455289 -0.24016611792558445 0.06285348796778044 -0.11714187362518028 0.20959593039480554 -0.0058592392740703944 -0.02326915923490203 -0.1052528254711514 -0.2392102686012057 -0.27438132235515394 -0.026897819652943824 -0.05592344772474021 -0.1641186631952992 0.021121507885246964 0.18772544729327606 -0.16034898496056946 0.06475734027525738 -0.13069126319393295 -0.20223887045640349 0.3303457448430035 0.4223304470791432 -0.04750430042165353 -0.07282982996789514 -0.14939437527407254 0.30785473493064286 -0.008735983007668563 -0.05093633852955429 0.13464581682850982 -0.06053990010526071 0.03137055611546347 -0.11624135487295703 0.21121088607753816 -0.0875038155621499 0.22142154197435976 0.11472412966974792 0.09905954469351252 0.16704058969361735 0.09994387020695077 -0.25677744888417786 -0.1805733300314429 0.06390335392543053 0.0449932779985304 -0.03485700997648535 -0.16046595121407584 -0.056282164710756755 -0.06751375940762808 0.07932582512822184 0.10310805437497146 -0.09054454166102055 -0.0056306081735024785 0.05389431309975257 0.249247257253689 0.15114890421877147 0.058310297804720496 0.12199730983507205 -0.05230984570272662 -0.3805663613978212 -0.2465542829941539 0.09127575756622094 -0.20968144590869514 0.22118250919914273 -0.2886926236694912 -0.2673073660615919 -0.060523037184741654 -0.2793942402035884 -0.3147516194216891 0.3058853053473996 -0.09793933110030846 0.16077600434153577 0.11614169668398339 0.1975467209397734 -0.20539913900125367 0.14834992761472576 0.07021372759074068 -0.1287066665677761 0.06442348640847105 0.07850609796177081 -0.5125160873442446 0.04134199792601271 -0.20227073693960398 -0.01670669227632874 0.09147724392922742 -0.06033790423663337 -0.2541387907037563 0.3524268725234422 -0.030849463302412738 -0.21855809991969677 -0.017277218822109062 -0.344618168476358 0.2842483094239888 -0.14231470125903337 0.038826184767639986 0.19387236029609659 -0.1266753410934342 0.16582387749445793 -0.12774412954847017 0.06621750255042169 0.11023850985352868
accsgn@ -0.19911064176995552 -0.4083397699883185 -0.5204755747062325 -0.4062668864674465 0.12444289875783773 -0.19847774282255076 0.9203676880415856 0.4412235325632428 -0.01118092921000056 -0.18463679522521848 -0.5913429024381094 -0.14105482691594953 0.07227996140672918 -0.10931480015741324 -0.5674092563153825 -0.7006826217256686 0.09533722772607967 -0.25932128145866107 -0.30878252263754735 -0.22735331724227056 -0.09360009162017306 0.37471855681328087 0.6758838447188835 -0.37793101983675437 -0.10710043155543807 -0.38643977613140507 0.2747698773151778 -0.2334337997380052 0.49197091266346643 0.7106134451185706 0.18782575868507323 0.29241283760840997 -0.16746622814728837 0.15461061370757143 -0.710185433184605 0.5988444972898035 -0.17929008319532194 0.4918351381146867 0.0824628942091619 -0.17742453355679155 -0.7553508855502661 -0.21745508722474224 0.19956357050880627 0.011055017038747159 -0.17195585959896667 -0.36599701703583004 -0.4980016355908278 -0.3831512323056956 0.2640473049058873 0.46081895220507857 0.1688757336456747 0.11524250317241969 -0.17459191479481082 0.6316734287696537 -0.2641940811208867 0.13096107113844555 0.12228071653855678 -0.2238755094607003 -0.2197323159537845 -0.2099114733996339 -0.11088571739587978 -0.8420383954703612 0.21110058198019765 -0.11890617227705519 -0.6738732730495017 0.11367590728199933 -0.11555098280000949 -0.3749396167463261 1.0289014499698261 -0.13077110031319095 0.26749703248980977 0.05454016056317098 0.5049783733369405 -0.6217412338892686 0.33781753134342196 -0.2521755397744468 -0.25616009109135496 -0.12278894024575471 0.4968684469948552 -0.49793123907818343 -0.3453223514052969 -0.38794458767371864 -0.40360584388467685 -0.2878534208896654 -0.13610660496980753 -1.0612488487796303 0.894050753990548 -0.16619520301390941 -0.6757429081297646 0.024875088485212846 -0.553754022437396 0.4391490043731848 -0.014207644735788585 0.07480795576582545 -0.11586568190008607 -0.20635595689311367 0.5901718679019694 -0.17938811808658314 0.0947365593914743 0.3808957262968868
prdu3@ 0.4843166974328813 -0.6599986117798835 -0.6582257876261359 -0.6461115784588314 -0.12197775859385729 -0.6176950867686953 0.45520928668667604 0.19082522786976325 -0.023914066276379993 -0.37598442465865184 -0.36181132016437395 -0.07462760531121776 0.002324671262786502 0.17838653691467785 -0.3663208757837613 0.2872830533555576 0.3193426089627402 0.03711125392111994 0.21175062993452662 -0.5825610118252891 0.03128727569821335 0.044215213862203416 0.6330610758491925 -0.7566153706894034 -0.01330661375929291 -0.6040355996007011 0.18886085369047664 0.16857213278611502 0.04149398322971094 0.5620964649798614 0.029136228197742076 0.4636503896188168 0.3063885799298684 0.5145825541445187 -0.07748842647387869 -0.0767304924749104 -0.21521325409412384 0.22630716609169862 0.5275140617574964 -0.20673786609300546 -0.8562422848883129 -0.586340340830031 0.2282774964613574 0.34625786195309566 -0.0492609879445462 -0.13703792067688136 -0.29895840265921186 -0.08500366196745918 -0.20891336972514787 0.3809618552525838 -0.24755537075301012 0.054296563423815225 -0.004319147639242666 0.8040447504747481 0.5147573811312517 -0.18809816250134082 0.008680876167047592 -0.3512956453930764 -0.3099768307237398 -0.1492313378313113 -0.5150747793238788 -0.8432046499635492 0.17301797458813303 -1.0448250323534012 -0.684257580765656 0.21445011312053316 0.07852258905768394 -0.28632375562474843 0.6459755237613406 -0.21687535657769158 0.46308245900131406 0.25414063391231356 0.7326140623717081 -0.318332440441563 0.06240442838697206 -0.017408098781570083 -0.29023379025359947 0.06032194392312141 0.03495829942680541 -0.9567442680043834 -0.41504188316563767 0.17858760176403893 0.2340815488160366 0.3134259772265241 -0.3593931629189423 -0.6374068930745125 0.29446988162540255 -0.4072902799428751 -0.36228451700437636 -0.4039573412211168 -0.36643342886652264 -0.3014032669542801 -0.11277897593875726 -0.03112591319673118 0.1694647210339705 0.06511959486774035 0.4233585702964947 -0.4821743122080252 -0.10513061644243342 0.3025167879781553
nomplf@ -0.0010111937816772196 -0.5875764601545814 -0.7578735785897047 -0.7300693432171925 0.16007229187353342 -0.3779993752925944 0.49269059727644143 0.21706181245921202 -0.003888494294393547 0.06641212456146783 -0.6940683621717731 -0.2172801111453048 0.17008316591995243 -0.4097101414909609 -0.3984422222191349 -0.33516691298197204 0.1952644585691193 -0.18215966710261233 0.13954750447315567 -0.2723541691704795 -0.04880652029083806 0.20533492328951694 0.7539274751042483 -0.23472836576957914 0.030805150212704704 -0.7234970790692394 0.715059151457155 0.17104697350133305 0.3051378098656634 0.5160091030928824 0.02810728599876932 0.11890478975282323 -0.05206404071073182 0.4460532201181929 -0.39867187101430346 -0.2952875742451513 -0.32961042378952443 -0.099374145968844 0.2954451702780679 -0.23595327965114188 -0.3735029415760205 -0.1100255214224029 0.3588894376973909 0.4460474982677572 -0.1825927830878032 -0.7939230823590432 -0.015348854096253774 -0.1670889380433953 0.12683714555672018 0.15406918913938503 -0.09808817025994568 -0.16212536854125223 -0.12257431526912699 0.8193366247815667 0.7110022826526513 -0.05883621578794663 0.7438547894245573 0.11483015619657183 -0.6127375692757682 -0.43512702788371943 -0.2629427809863248 -0.6978017537636153 0.46083416945152245 -0.2790358328771176 -0.9469546622921494 0.12992153420599767 -0.02909023027029655 -0.6313123144300409 0.8332256876668076 -0.20116782923782042 -0.09542667578140258 -0.27015154530225255 0.4362109872735768 -0.5119226231189912 0.09812226312147806 0.06902645081722411 0.10146169052610209 0.3114721793718511 0.12870054373971795 -0.4018114304032039 -0.4886303087955134 -0.2826713565657962 0.19513375948014605 0.3538551218342994 -0.28359196568913986 -0.30204219272822036 0.1170530248741876 0.011706198650937328 -0.392406341901965 -0.11158867085107253 -0.5214234032647094 0.05141144429157208 0.18813409969122474 0.3747823650068642 -0.014829024847849835 -0.5262262660702685 0.6459823446147098 0.1232136068511141 0.1768294556886571 0.15222646918391172
accplm@ 0.2458717379313472 -1.3584553352678248 -1.0279585743602904 -0.6308521308500126 0.5151174978383589 -0.22256243003349255 0.18438514085364957 0.15190502005245227 1.028683333091531 0.3043161620691451 -0.15883851835866655 0.05857217456312825 -0.04168774086043511 -0.39932700441091507 -0.6895299982710209 -0.45868535303584296 0.43185686463824796 -0.3370605973241517 0.796934139571621 -0.24974844483470254 -0.5981904749706054 0.2175061620658834 0.5023378882061884 -0.007228235710548643 0.4899563149904369 -0.6829972018771275 1.2522869482780008 -0.12075980684517207 0.4653722115770801 -0.1032405192520212 0.31953577081689 1.4209423733781843 -0.41970939766934706 0.5042785760840699 0.9261965681305281 -0.15627209612335255 -1.3226124216158208 0.9983768294787893 0.6812497189910885 -0.4519547755795895 -1.1448269265350348 -1.52377914291715 0.7666927064017093 0.6867258324644928 -0.025326136584879977 0.20260917961414407 -0.9357011386174044 0.07782607092943782 0.8710670826600767 1.03501590043091 0.21565971571883916 -0.3623665875193586 0.5355299089278 -0.21294323675740898 0.9089654631830163 0.527525060498362 0.6421165331832074 -0.179766948902818 -0.6536272873631849 0.7202465514148189 -0.1633548943481995 -0.3208070013327578 0.9730601266891424 -0.601859717342737 -0.8959856947133881 0.28068920026258753 -0.5213528902149671 -0.4272004527583546 1.045982583305346 0.2722643754606069 0.6784468299569293 0.2792478989340838 1.518081354490537 -1.4231451368246493 -0.5925983110299089 0.14841335469602046 0.4483657732385216 0.5183135967401999 0.4518940290274648 0.06493646478341436 -0.4597930489197689 -0.46453218784377065 -0.19304740315873845 -0.206720268082857 -0.0839230097993591 -0.7277469908700168 -0.2438444902681654 -0.06971315374469604 -0.5229224892077888 -0.03807808984132028 0.10715724929659368 -0.2911642669268968 -0.1880106537051944 0.41225452862970663 0.720679079729755 0.2023636223842535 0.7783204240720856 -0.5440376000460919 0.20936189060007906 0.49450622658695675
gpln@ -0.3567119926503561 -0.3995937610099327 -1.0696998174908092 -0.9895254917515134 0.6470852419101063 -0.6948692094064454 0.5775640988089505 0.42155522108078003 0.3421545021091271 -0.24956524165943988 -1.2648843591942371 -0.40499559562942644 0.1909482263173293 -0.4820270481817786 -0.6632157527995342 -1.0711058051985445 -0.012274243443914987 -0.7535609135639321 -0.24361080097631344 -0.6620217642014466 -0.1634931885863392 0.4836616310137279 0.5740577526462888 -0.13074331900593147 -0.10870194362783894 -0.3584315739391209 0.42608942438676517 -0.42249508988727064 -0.22839120099122084 -0.059084197922239026 0.41549952802004164 0.635739573015316 -0.0462059538598959 0.7074072365513415 -0.29021686963845517 0.22459133428711336 0.26906918864516377 -0.09441865143339032 0.25072965420131543 -0.12174074044360698 -1.3206591743578031 -0.5929048839703347 0.5601204103491839 0.2585469366557607 -0.22474789387971453 -1.0296523360517418 -0.9004880996619903 -0.3050988396602565 0.016081490562957466 0.2437079477946735 -0.002630580614492731 0.7889033168264963 -0.11041090481923622 0.6422108374174359 0.42220935004862764 0.640369738045248 0.14852162573522734 -0.3415757275900794 -0.38139487746922135 -0.20216127937135187 0.18502335928073063 -1.1492349109748035 0.41707239079388597 -0.4775965173448463 -0.3668352498591525 0.8998249628879491 -0.46011568719828594 -0.41428631110098757 1.2694756206378197 -0.6310379416907875 0.3308742872068604 -0.15449914672565693 0.6095458815977411 -0.46192541962163974 0.30209895389751323 0.16300812625841607 0.09610122594150525 0.5275376166569666 0.11673869405990665 -0.506175960875252 -0.48804110889006586 -0.32552701487992575 -0.23801662678857452 -0.654478059575251 -0.9472295859810508 -0.3331892804640517 0.5664996963753862 0.31918768577494666 -0.11873627725301437 -0.3124064663696347 -0.09245757785743301 0.06344009006341685 0.7132893492766086 0.44985961678971365 0.48438764419587493 -0.3728798143882124 0.708229650372585 -0.5988380261018728 0.6944306394067205 0.9261384340844036
nomsgn@ -0.12007718249655375 -0.48906979413587215 -0.6015268657286804 -0.49926093837975366 0.11029242851452987 -0.2098237287008495 0.8577343478955248 0.41032924654891084 0.0546308935447718 -0.1425289534250365 -0.6399562718282246 -0.12850647494745754 0.06658983452458182 -0.13510383658962266 -0.5261353401946804 -0.530148839857255 0.19180413331053245 -0.20340826039975057 -0.22885726813994256 -0.2548140228429323 -0.10291792804369193 0.31496873949913584 0.6885583122244315 -0.4295678394832461 -0.13800737219681863 -0.4029531610192656 0.34309860292651256 -0.18807513628353628 0.43138933869538754 0.7032530502848748 0.12479734294046746 0.25948387454939054 -0.1138366318465288 0.21108176242917345 -0.6000142986685825 0.5305001601475309 -0.11911189688029017 0.3534861240254792 0.11215904124472743 -0.16169794969730275 -0.7304205337092385 -0.27317247410642764 0.23427786848435295 -0.0020147172776721696 -0.16268420178322096 -0.36633004086402265 -0.5083182627610493 -0.34552697689247197 0.18900795955096797 0.4413935914993943 0.09437569677115351 0.1626953233970622 -0.15829938213853167 0.6080947268996113 -0.07623729974656976 0.07842922486300372 0.1572082369492673 -0.29344429901950897 -0.2717923438561478 -0.3052735210004741 -0.181564132923814 -0.7743481489323547 0.203569692455458 -0.2059653989533555 -0.6788495338892679 0.13899970278355694 -0.08693576875117488 -0.36989521086708205 0.9087102257265902 -0.12290850453321814 0.22892422157089715 0.10224608684409936 0.5653927036184492 -0.556209912801543 0.3231702535189958 -0.18145047801993683 -0.22283354885425327 -0.05059579923275032 0.4370643786386429 -0.5058798119112411 -0.30007137748725826 -0.32728329198315975 -0.2189711717725579 -0.1877228232084053 -0.12944411501708622 -0.9154876865037862 0.7314381627233087 -0.12198641149686969 -0.5392179690405745 0.0548702298477989 -0.48099442383547125 0.386968793814446 0.01979761350107352 0.11332642648530275 -0.05642651881203356 -0.21014588703841347 0.5707944033356424 -0.19515220762990151 0.11475437920100828 0.39853470507417643
prsg3@ 0.49469398969688744 -1.0129912554081655 -0.7604371136879001 -0.6018017491833879 0.25743475342485456 -0.08299443093093614 0.7841890454489315 0.43978650792148466 -0.40035792467491793 0.14311868472844888 -0.4926945332773506 -0.30202237138653537 0.108103083474225 -0.2515037066449726 -0.29289681714647087 0.05552439239416263 0.4739634241714233 -0.39861904888107236 0.05500603348645556 -0.5631181359186 0.043268010896167185 -0.06176843842242772 0.559575407819678 -0.347546155047724 0.14606715729066083 -0.26386229243989806 0.24881996113602556 -0.08928187657445226 0.31203871454638027 0.6366334295006195 -0.09092500353451209 0.12959662841123176 0.10720170064718057 0.03233187069394821 -0.29730830083314064 0.0012843644975093734 0.12540461735029484 -0.0655113759677596 0.10162689902869473 -0.2245782010980466 -0.8015580222687042 -0.2856028504965604 -0.0576394999925369 -0.33486386350244807 0.1290159761879914 -0.3668637590718535 -0.33358098146431364 0.09505358339607906 -0.02967077190915936 0.3080003399124025 -0.2988338886038595 0.1594406162262137 0.3343293585553076 0.35884939665619225 0.3338161777349295 0.0527280175716913 -0.10044159852263816 -0.4144156787178363 -0.48867191055706677 -0.6483821497188365 -0.33378531288071556 -0.680459928605254 0.3071648531198114 -0.5825113588841464 -0.4637737818379998 0.09153101622767718 0.12383610658060698 -0.14571115981997596 0.5707402575852201 -0.44220026009514973 0.48196806944865667 0.35272973937231494 0.9969924220662612 -0.08019590933615102 0.30133814843016055 -0.21660177871287722 -0.36967666113524217 -0.1068262633715283 0.25682558377852943 -1.21059805998655 -0.041833870107123944 0.2292069570611774 -0.1277965512452996 0.4170225643519593 -0.2554847052843758 -0.7736872267150416 0.4765338438110317 0.034118868275162785 -0.41412171263995345 -0.22948609802867018 -0.5332915463684715 0.190117252042247 -0.17395758377123377 0.16127095978886444 0.10195420650276242 -0.042375050693645305 0.4578026984873691 -0.20086154726314626 0.08746043579454245 0.5377991092775087
locsgm@ -0.1725136194601897 -0.41725142227841827 -0.5995560974646178 -0.46909230762511317 0.3559594638534525 -0.32216041626744335 0.4450769995363405 0.4732263534397205 0.0679597674732931 -0.0860650722177808 -0.636451112104477 -0.06450185435400768 0.12057847763100252 -0.293378782045518 -0.358767147005767 -0.09858240843780774 0.4535364288652267 -0.18279586321433897 -0.08920612504959784 -0.09602569644864764 -0.17607523395087232 0.20515466091594087 0.6808737868539892 -0.2918996842862288 0.23798540212862593 -0.3806571026991859 0.5595635634326896 0.1465312675826929 0.40080618751507446 0.625209136947675 -0.031504056231859943 0.2611801592660342 0.03448394737629728 0.498266422513316 -0.2729744206627154 0.10847341153897684 0.3259375835357645 0.19285448474761147 0.18252317104155996 0.10432561267947464 -0.7201617046213987 -0.17632913258313745 0.04537081070177789 -0.029236555781235084 0.10803660260280594 -0.16757566503630103 -0.2949288975762645 -0.14012145672640583 0.16101808224074457 0.28751566572335563 -0.1092702506888694 0.0853584034017638 -0.04825690310787071 0.5044109933084336 0.25190127085979014 0.07269309917540447 0.1405326321008978 -0.14861459076985137 -0.4351809964605982 -0.5543189797272252 -0.13650870427274592 -0.9593400309243324 -0.03057649878999702 -0.2417233908954137 -0.2610101988940506 0.07934146339221942 -0.2247231369523646 -0.41957064056224735 0.5340354084451502 -0.3720667569932086 0.08661898378730304 0.17750670197843152 0.6237035657327574 -0.4963587224441157 0.12066630564793315 0.06358205796470381 0.07878281038013353 0.2368064346904685 0.17371667790039164 -0.56808432382917 -0.02057000684194995 -0.32802795632999365 -0.13277447517831242 0.1350931743069177 -0.24378728709643246 -0.6882994143516067 0.4230550114358715 0.002005520693023459 -0.3694563590846623 -0.3783491966267745 -0.3075251318812945 0.0632785226867002 -0.025030724830054616 0.016941656469663776 0.0922325508330356 -0.08166948034119635 0.4224698893240178 -0.22709069075017516 0.20734119327291362 0.4065672856478879
gplm@ -0.37719636243343174 -0.020741700908743138 -1.1699822270888216 -1.2590727458997795 0.778094775552701 -0.7585332177395108 0.7219080102497717 0.564769637869429 0.23093075724740672 -0.177672166519396 -1.1860899047368962 -0.27253946761271475 0.03867874032567365 -0.14541623348038182 -0.3205229305181078 -1.3905211493782306 0.3049281970358642 -0.5952733842293054 -0.25573691865851333 -0.5061453014323446 -0.49004474496665856 0.6302471368283799 0.8829501305996607 -0.3845756206425115 -0.21427344052216707 -0.4995274409072142 0.957836633092327 -0.10953156745168198 0.16623313442502857 0.2120846316128339 0.2611326469654313 0.652636613927534 -0.12746491416968023 0.790439894782598 -0.317401565138667 0.33733402463196693 0.39233092033621514 -0.21203557694164804 0.3154211035364074 -0.011705501483376292 -1.335318151580063 -0.44744000501517106 0.8726327998740908 0.15870376327708138 -0.24807428007486793 -0.852328501000235 -1.057437496715622 -0.4040974865954516 -0.08952010545972454 0.08667056563555114 -0.17118163521365007 1.0267861767297786 -0.4344587154191246 0.843402460358159 0.41339894579765685 0.8181627352399825 0.12297705448094721 -0.21156189679182233 -0.5725161366592361 -0.4113853083321335 0.17785184223238615 -0.7317809083574983 0.29235318112623204 -0.34032497408706974 -0.2786169849853861 0.7182784582688009 -0.6228714756768906 -0.6259520326113592 1.407556391509638 -0.6284286510987134 0.3360905021082981 -0.13868452921183358 0.5442038810955434 -0.4039902789461964 0.5357825767102559 0.20619157300783697 0.0009222552644544677 0.35461225997082596 0.1482514850381353 0.053176380887000156 -0.45365863047284144 -0.25523431068483254 0.07072903253623422 -0.834751269214553 -0.8572893870186927 -0.33448665689541945 0.28004327433864695 0.37034410051438743 0.14570724827046097 -0.3584382614318501 -0.07048089447673242 0.32178777903233996 1.2011887815491131 0.3112308298127889 0.7849267051918178 -0.42091631335051577 0.5860156021396129 -0.2066495391903192 0.5514794514508176 0.5121642122399681
nomplm@ 0.006551479283706884 -0.2819554156195403 -0.41142816728388265 -0.7364554442691579 0.3079305116524736 -0.42583220164091773 0.32037114749104867 0.11725836443094119 -0.07808530532814675 -0.11592964669931238 -0.40330360515206676 -0.1823341735110888 0.3430009925455649 -0.4843930807864589 -0.5125915508214354 -0.44549747315042076 0.18350987256906232 -0.2889039533725497 0.05158205585778459 -0.13979191164712898 -0.2098285539383259 0.20707116230179606 0.8733338161002925 -0.023720089708337142 0.273112613669115 -0.7474283676703518 0.7833760847658442 0.37857678143872225 0.3236237180536003 0.4965221332525629 0.008404080553929046 -0.04602929637496103 -0.14432416478617294 0.5412403202060536 -0.4263540941526409 -0.4340695737571055 -0.24227822736427104 -0.02151097052561943 0.58726490855416 -0.24451889218155692 -0.3874085862528299 -0.14534097168584828 0.3598123409626939 0.6658063643971435 -0.39594040597454044 -1.100867419984461 -0.030829919018478747 -0.13386950431731523 0.13604202952461183 0.09578272955941344 -0.06302793660222474 -0.39410959630829195 -0.061422676554791555 0.8601805908638369 0.736644327200328 -0.030320077887531844 0.677518385411037 0.40552317922765696 -0.5561943619717339 -0.5080672722975279 -0.2932926070565807 -0.6252872313998644 0.3898876313623329 -0.24742926625367243 -0.9948622370192761 -0.051753169986815874 -0.3367625183239039 -0.42712177880276003 0.831073407072436 -0.21442776692850943 -0.1377869525621298 -0.23364694799812874 0.6273175057541682 -0.4406732111723918 0.12425484974387249 -0.004265111207412808 0.1076439477530684 0.12104686069642186 0.26223653330725283 -0.21417615088569397 -0.6543565416844352 -0.28797168713961024 0.4304337119163258 0.38141039314507913 -0.2789506332076075 -0.2130362213110219 0.014440560053873546 -0.2531345764407502 -0.5181977740898553 -0.3367589827244335 -0.6415935715802903 -0.1284270037110983 0.14847578576350434 0.6107475187383645 0.19243232290997683 -0.5101589797344704 0.7399149702873219 0.002603296101019239 -0.10938883822553748 0.23757625745289535
locplm@ 0.30197434038603427 -1.2977531547280583 -1.0722476562132706 -0.4822064238424237 0.5593254194104087 -0.039171872207441845 -0.30166983450888785 0.3720205090853965 -0.9546805785314457 0.511135310500961 -0.6846307626849896 0.12475003278184985 0.3098882224813506 0.1653458047406496 -1.1996107003273997 -0.4048342752597622 -0.12124981212026968 -1.349787441887767 0.19839159064891598 0.31038415044659395 0.41203307057730854 1.030262948894823 0.5745733394916799 -0.33318153830918457 0.8459330331282439 -1.2293449588925451 0.9957025618972005 -0.2395062439294683 0.6737979316731563 0.6334560101952504 -0.1449140650094361 0.034290717027426976 -0.3945864300570778 0.46954044426564834 -1.125702534374353 0.17837064194719535 -1.0812544956350245 -0.30928078773305623 -0.5268497087589994 0.10704769445834933 -0.907320375680118 -0.3487605134881026 -0.9452543511382632 -0.5660453895445146 -0.47274427269459574 -1.1431869170754343 -0.47345860575552323 0.7004430819604848 0.42506588322764915 0.41103556427500537 -0.11550947142815268 -0.41746273174932275 -1.0410469678306096 0.33440095379420026 0.5033593531572134 0.21493676705820788 -0.009602967577331976 -0.5816295066395322 -0.9034526539412705 -0.8875408805906773 -0.6287019624566735 -1.431620076902815 0.5235815654080864 -0.18688481549631702 -1.035150665890526 0.10475522757592812 -0.8567037946871809 0.19849983978752248 1.0710292352816544 0.13477301338335146 0.2474089417027662 0.40565237606800086 0.8617668895906693 -0.31473034927369775 0.44614910293657395 0.3951037291286362 0.6380975128126305 0.8223260665010359 0.04685960326192749 -1.4239581060167905 -0.19983993629402658 -0.7691193606855499 -0.32983636691209833 0.4211539651709294 -0.2091337286086904 -0.21045230492490116 0.272608832119511 0.8108838563784957 0.19621594646014273 0.1894414321192213 0.43820051441120134 -1.1613716778118868 0.07877681338907899 -0.13098129129188285 0.42112663504038306 -0.5310091618196787 -0.004725842912857597 -0.19437378053427548 -0.31032421691594897 0.5171111394522233
prpl3@ 0.481869201077747 -0.832860728443068 -0.7250767270435712 -1.2935295116089816 0.6020231048975672 -0.21072924377263658 0.2231026317575015 0.01630571566430652 -0.44341617372951336 -0.012989653061335307 -0.2544825123429551 -0.19588092598714865 0.6821273697473641 -0.47762599122943356 -0.7253129180321204 -0.3551215517667255 0.1631885128162269 -0.9364059822899955 -0.18925190858010735 -0.7330745191338273 -0.36865500401306367 0.20431805184842752 0.9290197110535311 0.1352635166318318 0.4699624760841419 -0.3668725836622928 0.8918486780304062 0.17108717831257048 0.27475929335092325 0.6056228124386897 -0.2346296205667646 0.03155081476849903 0.08346808433333146 0.319594547345436 -0.3054983716762633 -0.32562555744578797 -0.3252399150943217 -0.40440762185358575 0.40880896779043335 -0.5407122372233841 -0.3396923510058384 0.042916959853443716 0.3416000728362373 0.18304426858002054 -0.40967019778576547 -1.240808717706906 0.011459879101520139 -0.0559007813106291 0.14619033591994335 0.4058023443412302 0.1557121937741093 -0.5013336633943254 0.28763634795198284 0.7866624755651823 0.8552886649234487 -0.1933099673803164 0.4770393321723012 0.5306997586740181 -0.4572667222336999 -0.8163200088643602 -0.40333916631560507 -1.0411447690799833 0.3227514016708093 -0.7183406032355768 -0.665508847188903 -0.030536317769604335 -0.036814379316846106 -0.19391792307077205 0.5860682483612826 -0.21147130927669683 0.25829657677942514 -0.030623337036896764 0.9454624270155494 -0.0763352027063125 0.15971996427272514 -0.1463757832256046 -0.23450200440960803 -0.2837632087541611 0.44778083619728154 -0.6456433300527611 -0.43398780980413515 -0.16735652233681841 0.3024244840656008 0.3904786616962935 -0.3736481825588271 -0.3329736395273358 0.08683678646006489 -0.32717156155350885 -1.0435616604750977 -0.27750719773217236 -1.0536226474546961 0.018587141430803707 0.15458797818781542 0.7921420276663932 0.34353639245299356 -0.48613004540758475 0.8000990821181664 -0.10763422330741637 -0.45423258716639664 0.4484991631304313
instdum@ 0.5549191674217582 -0.730445479353269 -0.7856257657210032 -0.7864505151907603 -0.09952699889739354 0.06499590103824933 0.25238853320479393 -0.7905661339561144 0.49474213893214863 0.5418555567351481 -1.2380351175864537 -0.03973033217092355 -0.03955201059579849 0.17020498402416706 -0.7474951396385828 -0.714569766074419 0.8034668316443762 -0.2402573966731628 -0.06448182898263137 -1.067984479169051 0.13958230831970772 0.8648364593585333 1.2050905575354893 -1.08737609287103 -0.9120822151501974 -0.5176186400155226 0.9403608838717142 1.1063739222784836 0.8060227930545807 0.7235906571149826 -0.4736919552087784 0.8786663614834348 -0.16626034025102854 0.7285820071895918 -0.6715091752509276 0.46920527851519483 -0.10670041913787524 0.4021206671992938 0.3771009196837743 0.4252415845791499 -0.6219972570737203 -0.9055412809054056 -0.26531940264006454 0.5435145917969445 -0.29125623032450676 0.22124293819069862 -1.0383957761029403 -0.1964307288872078 -0.8381456434726715 0.557441179951032 -0.5683615307013193 0.32883987079064053 -0.254865076392889 0.40746233193203807 0.44021913160880405 0.5088265935579935 0.38523541390895844 -0.5990842593212923 -0.11373895903428395 -0.406685546040535 0.47363057484229404 -1.4056769808133442 -0.03689062207316359 -1.619686687986056 -0.45327573517958325 -0.22284951992332935 0.42039234687884647 -0.15274876914918423 -0.10035385563969612 0.5249859231213728 0.20139727368950844 0.1818191558122635 0.247015414138635 -0.7641615917285284 0.1684915255755186 0.45493514835834503 -0.5899658454582095 1.0055342291792233 0.3771025526026885 -0.34840787504799664 -0.4365121090474228 0.7425771752993265 -0.24529304603735605 0.11053672588119905 0.15708835298816362 -1.226626429706812 0.16899359971284866 0.0020428700372576714 -0.6920095731814703 0.22315642330795527 -0.733860619366169 0.010923303663730621 0.34871591491779935 -0.3877528027320902 -0.3163593824331959 -0.39467333230034757 0.3305392911036809 -1.1029331951091688 0.15821346392234167 1.2092134381333988
ablsgn@ 0.8828024888687112 -0.61644406578745 -0.7277074924942275 -0.5008697596229152 -0.5315126472846471 0.07934905685208461 0.6254769302904606 -0.13040842485342005 -0.3341433132228292 0.0068485610217714505 -0.44706533818578525 -0.2113847944946814 -0.037308010151954715 0.3647890801583666 -0.8476786588935695 0.04198764062222139 -0.09668567421014417 -0.3815672262552589 0.40687949499215953 -0.7493361387355828 0.356224264980221 0.4706923013721658 0.8208087080851995 -0.8951146631145183 -0.49850436929352737 -0.3809969334828633 0.351656663151067 0.20236933758432513 -0.03036162814395138 0.6917875238958701 -0.4401407831927202 0.7635894330379404 0.04947580548900145 1.1158680300469752 0.2418677058806758 0.14952448791145911 0.33527163020622586 -0.02903111562815039 0.39140361047602823 -0.6373493776737172 -0.8222719397963074 -1.2277336045793055 0.07565259153153671 -0.01896218446834557 -0.7451206860534939 -0.8191505969643839 -0.23722525453003346 0.05234377716242531 0.04791330234933292 0.3663714801319664 0.4370090083962636 -0.08134069587698076 0.026447549217510892 0.25680901703459247 0.040343501716238975 -0.013781787384945302 -0.29130616928968167 -0.2280368189856318 0.5456133572070442 -0.3920711617679201 -0.1534676035183938 -0.6854365332887619 0.40064087326143993 -0.8303165502018399 -1.1106035381961814 0.19606326647661435 0.34044499617882473 0.015251189500951964 0.6305789064784599 -0.7194583431622128 0.4504474741909768 0.6469520319851092 0.8703464819923227 -0.16578258015023767 -0.2139637276238988 0.1326581438919031 -0.2651587133899469 -0.041266127654309134 -0.25835057293661823 -1.2142924285367316 -0.7415349716512264 0.30560793602118586 -0.21673666897475136 -0.18624714950919766 -0.24650381232128926 -1.2949291917537589 0.4226069127519925 -0.06546529472150185 0.010498956552948113 -0.554887941647551 -0.9086241124987356 0.20576503179936742 -0.3715680720660176 0.1573249826499035 0.11051232269639341 0.13486167877421948 0.3382779218969338 -0.3255461766250401 -0.2928786567784079 0.2797038322582902
accsgm@ -0.15928154846200537 -0.5626795710771448 -0.6149494484224326 -0.5262580089406094 0.3150199630326905 -0.16123355602661815 1.0194588385664172 0.40212020981650076 0.10297035827897469 -0.21899422980791106 -0.8548737496411719 -0.15221119682397016 0.12171499475041324 -0.19511593812771916 -0.6911027359144689 -0.7158026120366121 0.11190382864756673 -0.25853620824749385 -0.3437879111698703 -0.23675703074188348 -0.1468042794723089 0.4115253602500906 0.819490350738645 -0.41640322992844536 -0.22117550609162973 -0.35061819498395197 0.3283861653919397 -0.17746667898408422 0.576567176165781 0.7403458009730081 0.3064134896213208 0.404285319100511 -0.22306377859326534 0.2528586202668909 -0.7870826240836782 0.7322911434907292 -0.19867243510421545 0.5532631056913637 0.13397662663989926 -0.1971573492964076 -0.8778170704896125 -0.3011875723306131 0.1388508223924397 -0.01984249290700746 -0.19046654976846344 -0.36751852538398727 -0.691375237482295 -0.377200624299312 0.2602834023312449 0.5755812318582645 0.3582472394689535 0.27999319473583245 -0.21457944446673347 0.5698703402822528 -0.234852455410986 0.30513156668203595 0.1349675945921177 -0.27203787242362654 -0.0735002600334857 -0.2208866339172972 -0.055045922537573906 -0.9372767460654816 0.20927415090776152 -0.11438237546818678 -0.6529456827336226 0.1715786109188873 -0.11344578047488697 -0.3955429025530617 1.177755566728741 -0.032943395334632766 0.24014104087660265 0.09332420348971701 0.46608693334887247 -0.5718633597544412 0.297488658929057 -0.17101137406054642 -0.3419179961832345 -0.20569769621931874 0.6466791256084898 -0.343516836226221 -0.40520096789857923 -0.5011872230453776 -0.3025929335534533 -0.30935876003357204 -0.07718195341391054 -0.9713980410767072 0.9377671851418359 -0.23927835494314317 -0.6572101214387126 0.11618252000883314 -0.6160468366332258 0.5211174814159736 -0.08804147434602481 0.17031082426760813 -0.1071815136293927 -0.14423956107391916 0.7543932062896171 -0.1860722545094681 0.229033722428768 0.5724597573540678
instplm@ -0.5600645837010974 -0.8357357660908316 -0.9831431609341654 -0.7296198152668648 -0.6599439683954342 -0.4518654276095962 0.3464996801602449 0.10290489091707583 0.02140255903482824 0.2098811922957963 -0.921318662242364 -0.06569258344628043 -0.06590928172779474 -0.037310472436217684 -0.16901974412217988 -0.32005824854092324 0.4992287514494511 -0.33661283593174957 -0.43118080326999236 -0.06789572131859486 0.39952566822501434 0.6346029544367565 1.2232435374946917 -0.07580356276811148 0.2847817711470455 0.07126834548662526 0.8355665634244175 -0.06505013993878107 -0.27683807190328097 0.1743099436536826 -0.12301088768980956 0.3961602612047346 0.22824091098105567 0.32174416050567467 -0.2960458063141648 0.47626817177476016 -0.10104820809121859 0.052495486661002545 -0.06093236340438726 -0.24863769683535053 -0.5687252460726363 0.10770873608308355 0.4956317298943019 0.5276906047257105 -0.14773882469320196 -0.6484902740637692 -0.7536260916267411 -0.7579436455742787 0.2652028368107217 0.6473241042034006 -1.0043047828315679 0.43566528460981674 -0.504904624978396 0.5129538416664187 1.3381220750510692 -0.49631530568240434 0.28709120688707396 -0.3885360594807287 -0.40415661799672337 -0.025631592458042994 -0.008231065672490809 -0.7412901659180426 0.10633478653262038 -0.15701335691570667 -0.4923186443154148 -0.006095353310327914 -0.5748843476460395 -0.280124091696373 0.7322646593564521 0.39267851645028284 -0.24482713020867886 0.5934654781732992 0.7288297774262285 -1.0710078293868042 0.2430404513770462 -0.31390529562466607 -0.14376942302717954 0.4686789879060382 0.6143022563032238 -0.34036947794661115 -0.23445803888213143 0.3072802721262294 0.07634603921975151 0.0451166414214748 -0.20537872240026245 -0.36912413782911707 -0.10702094688293351 0.363932750587178 -0.33938579030076715 0.113897820708334 -0.7921340415017458 -0.040259961358476745 -0.28550912128777195 0.5629398382967338 -0.29756598037557075 -0.4984069427191201 0.6128656068248517 -0.8763369337781884 -0.43115991337769427 0.14575076390933878
instsgn@ 0.17480220955633025 -0.17738359614628493 -0.5252820348862378 -0.5970179414324481 0.008614400643428773 -0.24885075961574515 0.3347915666504898 -0.0786090796012384 0.3358032923119508 0.20125377047854373 -1.0093178663488107 0.28226697425483593 0.09722433224173485 -0.26614428855687305 -0.37449970138057803 -0.6004867555796342 0.394201003934515 -0.0459607339976 -0.3168693864694382 -0.1829145782397297 -0.15100250685182887 0.040463197396940175 0.740828094689967 -0.31734451248103746 -0.5268716050108122 -0.29245337488428325 0.8024461968083874 0.2976898190994337 0.5691608427846022 0.24931793634479973 -0.6832933580940092 0.5980901113739735 -0.482710018673433 0.8074438366043659 -0.1286010292877678 0.31805511473016884 0.001009427124762353 -0.10766031050879234 0.3214937656473264 0.1367157596203738 -0.3026244705424433 -0.06740256551529919 -0.057103121520491656 0.34747062602172823 0.49705460576136756 -0.18407872733932568 -0.6948241323045883 -0.2979789933861582 0.12081470594530494 0.14165432457563304 -0.3840168243885495 0.01838965522973744 -0.5869568635166905 0.7514904160763471 0.4351536897994559 0.17320256109015292 0.33632986670307835 -0.39531849835331034 -0.27495327723181734 -0.6144258437853581 -0.3801875664750659 -0.5338687297838335 0.6675029539892097 -0.37873173211689365 -0.40285764807839963 -0.12456142348794233 -0.35083368372316676 -1.0568369093585674 1.0810466586794638 0.18744653656974472 0.42829986588683444 0.20938067281744313 0.41721912071999856 -0.5314270955182816 0.4000383051913279 -0.3334808186853053 -0.3104977782024189 0.8507780545218149 0.4444820960419627 -0.7889238488232437 0.08442349428353646 -0.31118165913663576 -0.010668754068726992 0.319703639154358 0.025562888805211802 -1.031685233381565 0.14426508084242884 0.35770012385214256 -0.36315665785318035 -0.020528336277151 -0.3215139258615009 0.46151449695305363 -0.05388583551793722 -0.20671188160208345 0.44690113095922096 -0.452221169655594 -0.1095480993010919 -0.6787042099100943 0.23172835740391118 -0.26789686391390766
prsg1@ -0.2855840963123347 -0.5444970868452631 -0.30860159973022433 -0.838982107399991 0.08490234060269414 -0.47394853547119037 0.8356398640934265 0.15149108459702645 0.3564005342048753 -0.15065826684462302 -1.0449868827079885 -0.11283191878611994 0.27976217959076166 -0.3272250126859154 -0.6706852760880885 -0.7374469316517464 0.6635667096183757 -0.3138223370176157 -0.3786499270736569 0.009321699578441724 -0.6174656839081736 0.17695225518892962 0.39025536736454625 0.39983304702874384 -0.3589588273316622 -0.13661022632467476 0.3473711903159968 0.6163541880445649 0.5522542060893781 0.31950299223565093 -0.8290998063078432 0.10911329808372139 0.2191937201176629 0.4749245337314076 -0.34520258399366277 0.3290598253446697 0.1580329446234938 0.21669251644852186 0.10277580161287327 -0.44324928147699494 -0.6935072039075271 -1.0631180212955282 0.5670047984505543 -0.4741230538453568 0.23695578293479752 -0.1402337606808152 -0.6138950724371078 0.32935803749297526 0.956062394100232 0.16497172528144086 0.49191464092394316 0.306555819349608 -0.36208192653709437 0.4356598532053106 0.3898715537154313 -0.15090212117730065 -0.21637271829607962 0.02881050305535095 -0.42320142234816693 -0.1770950680542173 -0.6671632761794208 -0.4000801794099236 -0.03464462696527592 -0.622777697263342 -0.022926521924973436 -0.2298245466116703 -0.09637320943816442 -0.40792586835044803 0.809022022279525 -0.3267644014999722 0.2682825856550474 -0.028920549927561573 0.17581037038730252 -1.0426454658460136 -0.11160922206637233 -0.2255456308749589 -0.7540738179226114 0.4437443942132622 1.0024998884723344 -1.0062908072287988 0.1813090673995891 -0.06417455976697231 0.010492771243055662 0.4660392434270394 -0.7564594246861007 -0.6643619264918145 0.676930724520876 0.27807082079651985 -0.32050485103250004 -0.3403608605566651 -0.3634692274335057 -0.3592869566396029 0.08916494654811392 0.17071762364922147 0.03300422578673772 -0.19788469839841127 0.9152309716199384 0.18681867909852903 0.24222459632320084 0.10039180182296821
gsgn@ -0.190469822362136 -0.22037233017823277 -0.9662419704939512 -0.4243658545305086 -0.047567195497608725 -0.32335881910382275 0.2812016280845119 0.016260375906722142 0.06410526718141996 -0.37276591614694593 -0.38517365704928536 0.060539664829634056 0.36898972949258757 0.15426398299464805 0.13148709863381888 -0.05190345060532697 0.13437871263138032 -0.08912565688508964 0.18459677667273305 -0.08130954848019233 -0.09307476895749993 0.21648777760406232 0.3378801739843566 -0.4587767497659352 -0.09358580552211183 -0.6665854852795036 0.21116239093314765 0.2576939251872073 0.08124805346177272 0.324045304312376 0.010545334978421453 0.2696062526904202 0.29146755888238124 0.4499487386030309 -0.06037216160651403 0.06462656311598912 -0.09656052198261023 0.12206941675854249 0.7281253200582807 -0.22449807903289343 -0.6411345215758179 -0.30667377680547153 0.12421776750610976 0.2674076338448832 0.1520170960336768 -0.36616947229039737 -0.3368720319444593 -0.2847183708682925 0.08417989521957156 -0.03008969076705895 -0.16702122947084497 0.12817116530940814 0.010549045447967028 0.22933268467179965 -0.04880586665024737 0.24033763381675508 0.18206753584324775 -0.05547048039053985 -0.6212277519649188 -0.1509330061344717 -0.3427337849410198 -0.41453313165162275 0.40567744070780243 -0.3395401438966789 -0.5156922547210298 0.16485178749036375 -0.32482546528419604 -0.295342867621848 0.594184831394487 -0.11130038572853498 0.17188447545325838 0.16606706703184226 0.3028761419481766 -0.13571007950788105 -0.023211873641884418 -0.01623463304448286 -0.2694774428470877 0.3991398291460873 -0.08408449817624693 -0.9126560064615855 -0.32726542848167656 -0.0810143091045214 0.20222346048865758 -0.10819912142874903 -0.6468778492730868 -0.6710961732069698 0.41092192620547946 -0.3391897742348446 -0.5930654859069586 -0.4403766966239325 -0.444469748543791 -0.2029033907622 -0.08336154219166038 0.029287228102758668 0.17933138002212065 -0.14609132090272414 0.19374636753658417 -0.33441847674168673 -0.04142084085794282 0.06145598950037694
gplf@ -0.3317111198391233 -0.30349379983840524 -0.9923244696226179 -1.1933975079738945 0.47320918146497715 -0.6269215994748801 0.8065233112166249 0.5605074263507535 0.21776057177538527 -0.04297696829119824 -1.1865039912069806 -0.4660020652776642 0.11951976552061876 -0.323978482907557 -0.24902826805037925 -0.9196657576332135 0.21019833630980542 -0.6335390147880321 -0.1717372780075725 -0.35198035775192127 -0.06319642655829096 0.5390561534705 0.8204910046195392 -0.32127114334461854 -0.1899947529392583 -0.5213922378925248 0.7825745156277781 -0.32282827395413605 0.0912289491258793 0.30606156483477687 0.24845189854838184 0.6231346947505422 -0.10868656059715504 0.6763446473557017 -0.34306438717563054 0.16908799002224706 0.5867195872211054 0.03729897233374093 0.2538802017405722 -0.1766890671873546 -1.1733636994447028 -0.48158105745657076 0.5891036546575079 0.22382426077951184 -0.18572544750341025 -0.9593551346095082 -0.9572133784274923 -0.32128837079920386 0.03158344169326636 0.1700335585841944 -0.13334042981544636 0.857185438367891 -0.40442960695450353 0.772849637251463 0.46521032097538273 0.6150629235712106 0.2695443129039699 -0.3067461254179293 -0.47921625305522486 -0.34198797105447104 0.005503740288918803 -0.9447269666916835 0.11618491023582239 -0.29837643593457175 -0.38535864410563286 0.6471300715846675 -0.45426545088520703 -0.481813111902874 1.2306501470645022 -0.4921363223668026 0.3177184727019775 -0.14513881145889715 0.5996108968620715 -0.461271350556892 0.3774347814343731 0.20117590801504018 0.09772860742411259 0.4752836286188653 0.22074671297895243 -0.1852586823544517 -0.3944349015212577 -0.25709404962958754 0.07961276585456006 -0.6693922377983976 -0.6667290104680365 -0.4259275005008123 0.3093786668610869 0.2146845300282751 -0.22102351803968875 -0.3284296167859669 -0.07235084809015811 0.10304396818189518 0.914667659387085 0.3028531051385477 0.45946691170485215 -0.4987058377714816 0.5463072117996512 -0.2684999035659784 0.5764377172457875 0.5204672738099876
locsgf@ -0.06938158111956014 -0.44540120818037326 -0.9533862936911425 -0.5458285600400051 0.6930331950180204 -0.4130475203646886 0.5166879986470356 0.013819325348527735 -0.10255712129779763 -0.023326891672196995 -0.9157217454262307 -0.2934837881044186 -0.04921289597202855 0.015566683071171037 -0.3958795557524937 -0.2747846723005578 0.5524433711579637 -0.5885021439663577 -0.06756089442916588 -0.49807147704007315 -0.15139103558590514 0.5344399935188325 0.8067351787937194 -0.1265221116812648 -0.16516833749876633 -0.502663326611505 0.4998785296606051 0.4931304283929147 0.11155699546589125 0.22238489322393096 0.1029686567815862 0.5172136153730934 0.12748813637061238 0.43190811705347654 -0.44190760653710504 0.1588093333407467 0.014456215817085737 -0.05049527997445876 0.2508098638569756 -0.016974899640961272 -0.6288966282224103 -0.016369601517455458 -0.06855890439629095 0.2485112771989677 -0.17480897601391818 -0.2233890802185968 -0.5133412457916268 0.05532827566316689 -0.03493802337529692 0.3166366106867395 0.053784666748350654 0.18197133600182336 -0.17186068109161146 0.7893828490953965 0.16052178054702787 -0.00954291966661063 0.31073243961791763 -0.5555071932673599 -0.5053199878875814 -0.5733099328677627 0.029465379240171098 -0.8663084927557978 -0.2719684990849274 -0.41133591000522884 -0.3592562965444616 0.16939961049403693 -0.07173887942288373 -0.3467099073138016 0.33169559463427106 -0.4324221220370886 -0.11003600749902744 0.060325907248442695 0.3105829686994402 -0.41810216338276635 0.267017410255422 0.1346384584723925 -0.29398704505018514 0.22695215965232823 -0.06542647499896759 -0.5067979450657618 -0.11223473605200016 0.010266338291660699 0.06895716488720943 0.017430459181544403 -0.4467826665335957 -0.2867798682834421 0.3748585348004928 0.17813438054850203 -0.21911431697977557 -0.3267118137349594 -0.027058343456978964 0.13892309956037274 0.22686814834655022 -0.03699698486512807 0.2895209806248488 0.057082310825960283 0.4761822490281948 -0.6646445433116558 0.3083576569801132 0.6109564997090393
ppsg@ 0.22232671629004072 -0.9014994504105672 -0.5856698481017127 -0.657278605628093 -0.0020936094009738836 -0.30407284716579003 0.720297684458216 0.31626913095747256 -0.0010253039858993734 -0.18274260303149417 -0.6984589721561981 0.09570334705199392 -0.0006125573859273615 -0.07042464598347714 -0.5111292051929733 -0.08655816323717021 0.5464425136064117 0.06631657808364211 0.18405983179924415 -0.4299377495294131 0.038087578540029116 -0.053127041392522174 0.442897254670903 -0.5057767332633502 0.1706736460328102 -0.35734782795469083 0.35710589708196755 -0.0030610600878251044 0.2698121340529354 0.4714816965347945 0.1375911307792241 0.432654521559561 -0.10525968959501351 0.3687878765369784 -0.07779708435020533 0.08605504824839645 -0.267423234423703 0.2875623724125433 0.1373760888100701 -0.115757023749245 -0.8821980282073835 -0.5904682389425613 0.1899575108423378 -0.023414114541816994 0.03587958343885302 -0.19177169884120246 -0.3706682923386864 -0.16629042528483812 0.23597959250812917 0.2842319131834212 -0.12897423643119613 0.23141911826888234 0.07602220993778891 0.4931297933076232 0.4220499532023493 0.13145356340822295 0.16262099886801556 -0.6368154709680967 -0.3139557038522419 -0.4006949805302991 -0.3974967372411814 -0.5105102553947558 0.30305586259151873 -0.45663228119597354 -0.7548337040592511 0.20569217021735411 -0.007765789068054397 -0.5452291032444332 0.793217448963212 -0.3421786665615843 0.3683695333334294 0.13872048834483716 0.6881414095519556 -0.892000230184893 -0.050358085479769825 -0.04616215464428217 -0.15760245686128563 0.17414056615479914 0.2830061321240724 -0.6853486785305508 -0.34290882088150026 -0.05783456679895219 -0.1144855623666911 0.09639353391523835 -0.3016016189376649 -0.7362296284168525 0.4337347085790317 -0.14405418712355905 -0.15667977680717876 -0.027360645689134638 -0.3624245270077536 0.006549769395194754 -0.23796181869491806 0.06269487263017498 0.35157118225604383 -0.07917682442180705 0.44169535078054634 -0.385857872828648 0.4553278197161317 0.399843014912245
impftsg3@ 0.3983737471812137 -1.4544676645578016 -0.8551846245150259 -0.5564487836176409 -0.06752626376381074 -0.06296483337265213 0.6886680511662318 0.3434273861763472 -0.3625920763111441 0.007882070480814756 -0.6130850920909995 -0.38928791254816913 0.19213550763239956 -0.24315319237699717 -0.43346562754271556 -0.05881623743840375 0.35487056289382596 -0.03001152361825926 0.15080234484709718 -0.5209818703790334 0.3448892325971313 0.09416984228210115 0.5644140172467664 -0.570944070670845 -0.19457409228457506 -0.15471628545378988 0.17310832658101222 -0.2564276436090735 -0.12875999288979212 0.6886326282747703 -0.2403903859263008 0.39001433012326703 -0.0038171021946040054 0.390253530518631 -0.20601879586704192 0.21383339846520327 0.2046419437808754 0.2210663984247581 0.161497146503318 -0.5555938728016807 -0.7958620785380857 -0.41800416591717243 0.006882979988819507 -0.2861540696812111 -0.20856246104119616 -0.33665287913365666 -0.6467517885226002 0.017611659333596777 -0.1944694532017184 0.5062136449669602 -0.056317186029990904 -0.13501502141107044 0.36590021764258035 0.4280239988703339 0.2882717217376792 0.12653456076711025 0.09575310482460495 -0.532191120787111 -0.23804594861148526 -0.44435056297311804 -0.2731327645279434 -0.6561613164277942 0.27941310493729776 -0.5386805137523962 -0.5070499194006047 0.21511596245774148 0.16163651465815815 -0.3989987618047205 0.7487374947827418 -0.23374268412175184 0.38859955766009463 -0.19096389171441308 0.6690286716471171 -0.46816871258822207 0.5398846204643593 -0.04247083790799425 -0.4929772601468086 -0.13311373681205435 0.531081523870705 -0.6411395744267097 -0.043031228926172276 -0.17656538855151702 -0.14573466455598127 0.2409310764477553 -0.20452609620542414 -0.9769267404165725 0.4030808161089574 -0.1800713296315917 -0.19913298707716748 -0.05986855409309301 -0.22669099801466833 -0.11243956515779159 -0.41280834322830534 0.10030335760395352 0.03296900952425692 -0.15168295656735356 0.34371171180337234 -0.4444637407252113 0.0001955676060543294 0.423585308463214
accsgf@ -0.04933906848515598 -0.6506431587235295 -0.9565292972666979 -0.9058068398623333 0.8516592252325614 -0.7883888268429191 0.8777865211165948 0.2139800210219002 0.24194403015173635 -0.027948282687777024 -1.1917459463246765 -0.3437479803876167 0.07794851127446815 -0.36767611150128837 -0.7178540605736642 -0.7668252179428363 0.11867273266166578 -0.6378108240589304 -0.10348761676621494 -0.7621307626952041 -0.18776727993341805 0.2771969558747746 0.8464230570289345 -0.23917413809610355 0.041230260378274326 -0.17429573884040586 0.29351977761282727 -0.2608166030481654 0.016881461804698173 0.1502366211596607 0.02888762534928119 0.6206599247577717 0.01935780450130091 0.4205593642638225 -0.3129309677295005 0.4009378571899603 0.015687867777106217 0.21784993434331357 0.1303402583130839 -0.16133157275807933 -0.9880103467591757 -0.41561626880157676 0.12465500132848184 0.17803019139413911 -0.2806365015013115 -0.4824823661402449 -0.8849726108145602 -0.17027684849446986 0.09688317840724027 0.4571618888406984 0.10657246561973488 0.5232153750321001 -0.027519746551035604 0.6958803577444401 0.2174416970011576 0.640609098441652 -0.0204252401588496 -0.5021504941869385 -0.008569751801813685 -0.2655452112809356 0.12159480081762349 -0.9906482407279189 0.1306493660222346 -0.3456763884486223 -0.3854155095087879 0.6329419432482386 0.1910821087349859 -0.4417272914254205 0.8427751532576349 -0.28251883415456575 0.08612431207088772 -0.07942629780509909 0.40499625201422296 -0.3399340494283343 0.23130234717570064 0.06926049657379957 -0.36404799725702025 0.34136655766828716 0.11490762934387282 -0.254800206113204 -0.5024584858495995 -0.2956866008962757 0.03745465564810279 -0.4556882377785372 -0.44933553623423667 -0.39774639038986154 0.6356431631348644 -0.04462297801438337 -0.2134421112607765 -0.26005807744948894 -0.10782743219111428 0.22020885114109026 0.3227486519384088 0.24040165831945487 0.33289394963367674 -0.08511780091596291 0.4477788927258356 -0.524118733332097 0.4414811475687996 0.8218192093580987
prmdsg3@ 0.6654821681078729 -1.1029222646038832 -0.7701558699633368 -0.4716223106668221 0.2987740604448917 -0.08136409055441618 0.7313936017302423 0.40329478898151655 -0.469085980118729 0.19009432749910735 -0.5588622162719881 -0.21978477255155252 -0.015290507060424315 -0.4294057019333553 -0.3223722555681946 0.28746681607247687 0.4862275961346514 -0.04402268170489101 -0.17426787615995706 -0.5931807712571123 0.016096819734831496 -0.13261049003230305 0.757252974851849 -0.08142877280653461 0.3994442437680101 -0.20977915171533823 0.28578941158099674 -0.09243699941256149 0.5646120731638172 0.6503709766016467 -0.16722353375846827 0.3021643641331475 0.4170534250685784 -0.0132298568633979 -0.24110092803483874 0.17955884231826452 0.302145158557137 -0.2320685463290163 -0.15338884836961283 0.06401307693147283 -0.95950685671758 -0.3822663541164572 0.06042827195011255 -0.0659670288872531 -0.1584648087155074 -0.6996621661929516 -0.2650358844731795 -0.09022249292772938 -0.06280197594754809 0.28399561202945556 -0.5602358930462817 0.11512273709165065 0.20816874184726378 0.5065905826851931 0.4609827730570018 -0.2850712456366443 0.0026999884468363964 -0.24097000240113617 -0.49863377754671834 -0.773867584280963 -0.47979880061631247 -0.8670731098171118 0.2872251249321802 -0.8209252241910912 -0.43124318537925643 0.06612019749600294 0.2722951161902486 -0.3516379342245774 0.5582250633137668 -0.30343826980454713 0.4495296509217794 0.6669649112423998 1.0488885590645272 -0.19317090473189127 0.40359519033392116 -0.17423825858410183 -0.4664369163673562 -0.026885537914638446 0.2293148894288291 -1.2617168515099315 -0.11453422454486448 0.11854504626684302 -0.27737899228754476 0.6962030260625669 -0.25913004064932466 -0.5613277070517615 0.48339540998114083 -0.08493928594412062 -0.5165787595287552 -0.29014070053386876 -1.0025539845521525 0.07602249737370642 -0.15959428773100276 0.1375078972370371 0.3059463281565764 -0.041968733072280884 0.3018678290784124 -0.2027667750875781 0.08139897789072803 0.37376027497074266
accpln@ 0.48266243596238445 -0.5320100150260317 -0.8058893167936945 -0.9346215419055693 0.28196985142461334 -0.3781906653240145 0.5626446418612602 0.09307636066703534 0.8270981178073532 0.5944821905211148 -0.6545296035018476 -0.14672205050242138 0.6445965621902411 -0.36126984933398637 -0.5401677523119991 -1.0663918905049206 0.9596080969150858 -1.0983617034596038 -0.16495874214201306 -0.7308750994266029 -0.6035566062970733 0.9927022709730137 1.0313213305377154 0.02045554367164929 -0.31525563980838606 -0.8467744900826439 1.7904209170445977 -0.11732333346336812 0.7107270699870064 0.33782604835422864 0.6012444745496924 0.12125537613781533 0.35373844263195786 0.5663233152868976 0.2184261396913177 0.21585900161741858 -0.2946755697290261 0.3950043386033925 0.30426582358629106 -0.49306086038213326 -0.5729223074413747 -0.17312090153030427 0.32381242630535745 -0.4977712328360227 -0.07758173604024596 -0.6232584324624553 -0.9256661937152781 -0.9209298885156553 0.6426837768672828 0.04398882995355889 0.09727728660719329 0.21257923961620764 0.1324460630590816 0.6910655843511416 0.803879148803143 -0.8365654683861125 0.700983208269289 0.5463659650946696 -0.7729145576101375 -0.03646260683064857 -0.23636077256108898 -1.2139604412658378 0.3859812295773026 0.013836524226661935 -0.24725438742731434 0.12207911456693929 0.023523761252631465 -0.37631499076417957 0.7804174445888614 0.32436777608268763 -0.09376742409549624 0.14130750590883404 0.5770373785074251 -0.2638541961689869 0.027759430371595926 -0.29142765460380043 0.6697908542248833 -0.14880639190722508 -0.18762456903241545 -0.7317798221799214 -0.042790504040723425 -0.49638391322497116 -1.0111410375795813 -0.17552465952161062 -0.20402441095872467 -0.3461730268137322 -0.19438348038945777 -0.028877982572908422 -0.861069091005748 -0.24781873842990731 -0.0459398916826038 -0.03608003247944838 0.655084278864927 1.1742749643693882 0.7245515627690046 -0.5362969306835615 0.5371078187636883 -0.3222427064352539 0.037188203363453014 -0.3377821084809493
impftmdsg3@ 0.37452294571400235 -1.0358455494018919 -0.9797289688413069 -0.7524560806460869 0.1466535111623151 -0.010284986783624132 0.5175820580468729 0.17563554410048293 -0.03965187822246835 -0.03520241743397145 -0.7668906562166773 -0.48741259986591 0.21930496724179158 -0.3064294531395584 -0.5267601786897733 -0.40069253473361827 0.3831244551545971 -0.10636867760704496 0.22384711425246556 -0.20145540895032604 0.2820250218113263 0.24031052150466775 0.7885193355900028 -0.3316548475313372 0.031076461274599853 -0.4253182420302387 0.38948837640412126 -0.16126934719364067 0.07292524680850052 0.6197523112496661 -0.17373013186981498 0.17144883784973797 -0.15152538969947346 0.5421050672552415 -0.15590283458527082 0.0007145297321262377 0.01329289184330584 0.05875131411771307 0.019346603223091955 -0.1696690851600752 -0.6032670084864665 -0.06253646921891814 0.06496286813865651 -0.023567648155055257 0.01815292204328516 -0.6102008951261585 -0.5067317293404223 0.051477491268854 -0.24751141905825544 0.3787629464061269 -0.20404953647391263 -0.002128841621535165 0.26846233635864497 0.2931967081481611 0.3028024295549635 0.12246955281137165 0.14291306029009077 -0.12231689508690502 -0.3299218492493743 -0.37270787880234013 -0.26184893137478565 -0.5873066532005976 0.1966538483297432 -0.356164967564477 -0.5795574892182653 0.06464303737176214 -0.0712863408274703 -0.19414301671005868 0.8112976531406025 -0.3848004635327902 0.13731068790286452 0.039141683525409234 0.8849243907762807 -0.6452637722804433 0.4810998252569101 -0.019128522900489223 -0.2809705202409745 0.18536471043143682 0.36888654167071366 -0.9615128757534447 -0.05378591892524408 0.016570571584852187 0.036231234398476045 0.2560141007592919 -0.34822640905068036 -0.7674612266458435 0.4892888065984459 -0.1815912292118017 -0.21071060777269987 -0.1526807909490261 -0.328555515527234 -0.17643530680473907 -0.34892360026856045 0.2356800980347417 0.08705007993072893 -0.3023042349902156 0.42498398362744205 -0.3995990748807188 -0.10970396455718484 0.3122315569729595
impftpl3@ 0.13097915848782068 -0.8967594242719716 -0.37923078623405376 -0.7106329881001351 0.3960313486303528 -0.20307684524071423 0.6710443879879718 -0.10862485387600786 -0.065892246871277 -0.03734865908099468 -0.38423716116609963 0.08215667921941468 0.30562706066425455 -0.3246583176646815 -0.42319124053383983 -0.2918714035389035 0.5351391478636583 -0.2950243638871714 0.09601856213669445 -0.1599627073561816 -0.3519603744105891 0.06680273740054217 0.7032991563684718 -0.23813820837862887 0.0006291832948146864 -0.14648921597142553 0.9742924275613108 0.13856611678073572 0.15577058374426914 0.4723404976864194 0.16506146449530715 0.12590646807667474 0.035410419615462076 0.4599324677810939 -0.07641946555109867 -0.08146767380923509 -0.08698569589326981 0.27523375421134366 0.4002108515002007 -0.19580218208910422 -1.2002184396869569 -0.5375766993262047 0.40617092676612354 -0.08012415492517311 -0.42572488223180865 -0.8417658099287384 -0.5792373397474199 -0.2638753972795987 0.3266699012737115 0.615050169579728 0.30239470370200483 -0.2283917586860615 0.4653340563784505 0.4536031014556715 0.6581713178000131 0.25087313953960355 0.41518165950858316 -0.17217303436725986 -0.3573010851585761 -0.39028361181966786 -0.29755696652153896 -0.7611579097547504 0.5656425768812728 -0.638494600390279 -0.5818104483078905 0.13415469079235093 0.21301864450364266 -0.631287015010711 0.5329266599011283 -0.13348931299392566 0.23041762419174924 -0.1309438089970066 0.6278425667998057 -0.7896191309054577 0.0790766529998807 -0.19070748077857114 0.019736929374292146 0.26231502588881656 0.17695648494977936 -0.12999286838309015 -0.22277240117275438 -0.4619970265694699 0.3459077315394182 0.54257174115628 -0.3254033255845655 -0.43999119572947887 0.1682091025245744 0.06523903908727821 -0.6478585070528721 -0.3574311942062449 -0.5322717118975815 0.20751239673970917 0.15024392120540142 0.5853348651597666 -0.08432160323312463 -0.2217428090678918 0.4170025159214992 -0.5023445154128726 -0.09314717397873484 0.2606614857798186
adv@ -0.0046360678856306875 -0.4185584746301174 -0.45141762679797737 -0.3655708602248151 0.14631091707241034 -0.1874686199873991 0.3404455544991938 0.25071115883727574 0.07964242142548815 -0.09201213437758508 -0.49816242506017633 -0.25241648334109024 0.12970622089905207 -0.20152360245654147 -0.3801014442683854 -0.19224884683899887 0.122459012118443 -0.2809509567153014 0.005432590271239398 -0.19007386241306656 -0.1361641191541538 0.3053907297459788 0.5446461851975773 -0.33929878626778326 -0.11836482422372907 -0.32469580670719445 0.32873652979090323 -0.12819806293042407 0.0975633817488236 0.4868296435362369 -0.02126850290462512 0.15645407206334982 -0.0869506319453291 0.17456618930102463 -0.29431738540011104 0.19638262437809198 0.025460374364476714 0.3218264602017818 0.02456244599192449 -0.05948231663138865 -0.522202612639817 -0.26789250876334664 0.04377240717533182 0.05431775207035854 -0.21865204191331553 -0.27783773807564477 -0.2617684270917499 -0.13519993568236222 0.02964601669561683 0.394235273857685 -0.07132301586412931 0.07565749267757428 -0.07666041483247622 0.4465411472290785 0.022207119952520876 0.0836774297841046 0.12640825582927734 -0.27197256313568197 -0.26915442600014206 -0.2560400722991126 -0.04665796788653634 -0.6272371545449266 0.15526372151514686 -0.3123218817193611 -0.3559651404359668 0.07203880545041967 -0.20757298146557734 -0.32789324577210743 0.6480128706852738 -0.06687682448107689 0.20521755594966293 0.10250751533102793 0.45204745090307025 -0.39123501131314875 0.2816390464315191 -0.05682041841925534 -0.1550454031240928 0.09268473811565944 0.2939536150323502 -0.6313827250681466 -0.14351166459506562 -0.243840980432836 -0.07762693437598799 0.1369990387530692 -0.056450636881846386 -0.5779409114637825 0.49085020470264995 -0.15747155339655572 -0.2041258581975078 0.0037663082101718204 -0.4361964351865921 0.2931185579980861 -0.04031868820521431 0.08779112932324261 0.04606042207661466 -0.14818322015659058 0.40988386694616713 -0.2388379982626829 0.051666672720925 0.22665736419034235
part@ -0.019975701356480604 -0.20177157469574483 -0.16897962344312292 -0.26973050074764104 0.11068923388574595 -0.16108464728645563 0.39106582342022445 0.05414866013547282 -0.04507947186599462 -0.04058602192330037 -0.20345813253537098 -0.296281497155479 0.006182059887575273 -0.1827991250997286 -0.18829128069641837 0.0354141684704427 0.20181862604116518 -0.2945390821217934 0.10939695873868562 -0.05004136163918444 -0.18605230248410942 0.2797274525690008 0.4069124331511241 -0.053365243103905426 0.032119393433287666 -0.20708695243085862 0.42788901245351946 -0.15423136224087916 -0.008414427335638908 0.14398690141699513 -0.09132590963614311 0.13623406802397378 0.03933765959304541 0.17983003114670332 -0.12721216195406856 0.10640398365092038 0.10118047777620257 0.12463886870453941 0.13042190989261218 0.05028505194086284 -0.20573167212256854 -0.23973791001278413 0.0569845545801361 0.0009437959731346177 0.05125898964298298 -0.19236562639500168 -0.06642166361155807 0.0365995925595013 0.1518191821705779 0.24905288141657217 -0.07132308633368721 -0.030592221689231834 0.03397556623769687 0.23022617359668593 0.10410181725917919 0.1327092306220395 0.11919306303474875 -0.23872942993961313 -0.3726736636593596 -0.33813615640426126 0.000601842580442214 -0.3417660183666973 0.19725383930572377 -0.1919648050155067 -0.22659305152001022 0.009262699161850688 -0.1573024008574094 -0.20749481372592152 0.23418765738353461 -0.15876188346284406 0.1194572159720044 0.1483457825306316 0.22814055365243063 -0.21485430786128398 0.14671000728307762 0.011640767244296385 -0.23789150084421065 0.0857447229692608 0.271617053528846 -0.6975797950023317 -0.07450024066026463 -0.07362078025254006 0.14635655449162568 0.0027371278318856387 -0.12896054982190322 -0.2743061149606706 0.25957650896351536 0.039461135372506846 -0.30211220352146745 -0.17333734337064946 -0.305539969845433 0.3461400797821467 0.002323740573856088 0.13196061003198398 0.03343974346064145 -0.09862638497092652 0.19724358314670407 -0.1577125300253237 0.024704649415917074 0.09093800613716725
nomsg*@ -0.42340603479013506 0.013269604518663856 -0.43385363802348376 -0.4141409949609132 0.053437954069843425 -0.4301881751827809 1.309483600845193 0.8048533976419446 -0.0786901981183036 -0.01992714627194294 -1.0499255564366305 -0.021155384258991605 0.1363799000145941 -0.5382476474035298 -0.5596266734973461 -1.1494119091612003 -0.09650233324850518 -0.3022104733885026 0.1014106378754441 -0.21802418017781527 -0.4175963404646744 0.6322681621590028 0.6002508329482547 -1.0681732753745503 -0.11989305389660417 -0.2524710700278907 0.30949542325491347 -0.07134090106623148 0.23693537986956173 0.9623555955574297 0.10718343795867089 0.22986698639849223 -0.08176152949629831 0.4671093784704839 -0.4247077868564223 0.6705608224785798 0.33651128920387224 0.47460323702673624 0.17101712441914596 -0.6967850729943039 -1.2747202200983627 0.4171805465961277 0.37500315615064583 0.19650584719902264 0.11798431160762526 0.004061250737814229 -0.6199488660575619 -0.320364520262728 0.37974402591102085 0.5979224178170798 0.10238020777218303 -0.14821072098887644 -0.5891269971454504 0.5887183638121025 -0.10494173508301688 0.04271836087902848 -0.18141750277402507 -0.08556150361083086 -0.4590427308081889 0.45618671037336667 -0.7561448032075319 -0.8291994179912309 0.19554120734368566 -0.5763303824201261 -0.871415898065556 0.326950594800116 -0.47820421220710946 -0.6479949324009313 1.1865193301729702 0.03905433061124277 0.08939454946159159 -0.3746114267412305 0.5943033026051632 -0.2283089011561843 -0.1586369746410571 -0.12548707106924267 0.4210535045021717 -0.047984128312279065 0.04471781199015763 -0.10314225173812455 -0.39235911191616146 -0.5832669709197607 0.277291468804888 -0.3171779139101367 -0.008788771866853165 -0.8611010100407279 0.7387900125114312 0.0498510746916285 -0.7312559691839041 0.029457475143007224 -0.32580461600695987 0.6726460703789081 0.0813167562598596 0.24548598102525118 0.18476581626859107 -0.14061591156656808 0.34736186855422924 0.25808234383155465 0.4418245225954637 0.5920049387901123
pp@ 0.2661004495813857 -0.8158436095767084 -0.4282897390466394 -0.5280119317071169 0.037936212726083815 -0.23276331948221682 0.5423113668305428 0.2048560230779926 0.032106877594328995 -0.16541501536223974 -0.5534958322875714 0.016729429686849328 0.1277956943994752 -0.11224731914836374 -0.5346435175760116 -0.08677413822923652 0.5012877132327134 -0.005732091897995616 0.1107957264879279 -0.3673983546321713 0.06685774434010065 -0.030668718887865428 0.444925973660951 -0.3471910700271208 0.21441688075151377 -0.2624898676186141 0.4439216542775063 0.08247932407911181 0.25432713038381877 0.43284343897664795 0.1825324230380036 0.29917460767305126 -0.08003013728201362 0.4329374134689295 -0.09497765664814134 0.13120788132659725 -0.2809768811460923 0.3501127499110436 0.2649110992706818 -0.06437204462071053 -0.971341423759539 -0.6451380559991523 0.0960987029901502 0.13711740024912994 -0.01738860281939442 -0.33410786468586 -0.47406034922755064 -0.12393079381047105 0.24973544726160118 0.2981703090322712 -0.12945887958916952 0.051223323189628286 0.2073001754779085 0.5279481088609894 0.5454268643297301 0.10361873368899674 0.043427605147608524 -0.41702784305920076 -0.33964009807832396 -0.31559794889017884 -0.2975197696602956 -0.5403593489603472 0.3714076155943668 -0.5679535960420481 -0.6850920328590103 0.16820741698880398 0.029294147870688715 -0.4554632596297379 0.7554851671067554 -0.23619479651590614 0.3300745568648173 0.05964347058538169 0.6739669101537579 -0.8535819583411125 -0.014141770175838939 -0.17108869131228885 -0.12868669843163882 0.13877210387913166 0.18318596033091114 -0.6421778024831004 -0.3865243555000853 -0.12914275735472525 -0.15561459810531375 0.15124841510599676 -0.21658611246407564 -0.7618584520794469 0.4003346572250828 -0.14888987375803164 -0.16615405836982391 -0.22468007481067742 -0.3281507990837866 -0.07932959953139945 -0.2350343426029342 0.14960906050266373 0.2721321817152248 -0.022176097705529436 0.39910283154769083 -0.33798030569741255 0.3575486091539923 0.3484292512923177
ind@ -0.04580560625355861 -0.40033130748622914 -0.18784737296941392 -0.2229083333410285 0.09876850157560128 -0.21429430683460182 0.4180500657973707 0.12481056493565175 0.015171208262897385 -0.12348620527362461 -0.2913724922168489 -0.39684256996373235 0.08578686299379253 -0.10058336126320253 -0.3071364984199934 -0.10390455469602558 0.17992419787318573 -0.32875966546385726 0.010650621424547306 -0.10361981629228531 -0.13101853561696364 0.16397903614729492 0.4616941575168958 -0.14120989301369577 -0.0012659336520633117 -0.2029475146186004 0.2529969387794112 -0.06871037848936724 0.029573787987080928 0.19699125982783167 -0.16425445072144876 0.1821007143498072 0.10150561336106455 0.10474992487555947 -0.18900328254336632 0.1267705306146048 0.04698521594710762 0.2774740869018632 0.029876885595282322 -0.08833677755659304 -0.30963952080133905 -0.2146820854892018 0.1356090367842598 0.03528072900578455 -0.028740557837229088 -0.1272710759551997 -0.10039193850119367 0.05960507815713205 0.06803566048177064 0.27536947196018574 -0.04947754294436595 -0.059310147292949825 -0.09156585350481387 0.39388751259622007 0.040981930919313035 0.04142752161656085 0.1248054592799263 -0.19269832728553543 -0.2765683646923697 -0.2874759016227601 -0.09091696888208389 -0.4382673003119866 0.14009166673430937 -0.23042172715446066 -0.24711292443163504 -0.012570891491501465 -0.18455710315481205 -0.3205073612605028 0.46837404457294396 -0.24975974319814728 0.2073391655053433 0.09473149947406072 0.29371344114223563 -0.44277525496513104 0.20036957649334433 -0.13180338596537483 -0.23715579921975355 0.08110450385764789 0.23950924242132812 -0.705594257201035 -0.14013741955605483 -0.21457962945179285 -0.078886654038871 0.056297435524499964 -0.13069017345397757 -0.5027682928150983 0.40157621452197206 -0.039644092642867626 -0.2859524729742011 -0.1668131699038641 -0.30459902446887216 0.18959466959846202 -0.11980292322066835 0.10672253832046112 0.0612972973926267 -0.07843707465013575 0.17299729296323008 -0.22446263231677452 -0.021796821077652087 0.15807420771502828
vocsgf@ 0.06002942160429323 -0.6600669127176789 -0.7219203375279903 -0.6391230644110371 0.2539060825810713 -0.439387361121857 0.8071634108748507 0.6916137758423301 -0.09629778191447258 0.11058655008673668 -0.8556770857642678 -0.18446530653711626 0.22784416728159962 -0.4363459221580449 -0.5491175809327293 -0.34821809368098483 0.25762684818576365 -0.2565232398098006 0.19781270404072368 0.13541148602962494 -0.35763307167764974 -0.19363412523970885 0.4994833904921132 -0.408537564032218 0.46961144073044553 -0.5380462092511794 0.6754382445531733 0.01855895251912229 0.25611144128967733 0.33823999762535095 -0.3201476912945509 0.4709080102689126 0.3565930841381059 0.5553383786121712 -0.12391878741190714 0.08626325362745453 0.5304665881044724 0.039297686780200285 0.002015375477426192 0.13332222226788015 -0.5827237762072507 -0.0818931500920478 0.2801196192226866 -0.2867896136115579 0.12668270935468814 0.08090473448528963 -0.12707093160818606 -0.05543531937634244 0.20351774508462234 -0.08271569026606705 -0.3113727005308165 0.13341492633609212 0.23103997746811195 0.628882506465101 0.45014388399089084 -0.22052704126519315 0.4842969389522777 -0.20952890418908177 -0.39344559872851653 -0.24522969017133994 -0.5987655399915051 -0.7545747509335771 0.26648628837702903 -0.26136114316828113 -0.24123925304807284 0.15548208049115012 0.07583552697563872 -0.3207346273257452 0.8112693762078005 -0.560050895985435 -0.0039444952545797125 0.23437405914506493 0.5339261089615962 -0.4555940992911072 0.27307331079945846 -0.09601428064685452 -0.34715530867962274 0.19118083180750117 0.12767973980482886 -1.1014951432452482 -0.07542975257863016 -0.26803936349118457 -0.016778763383626938 0.1914520289968042 -0.025911312769441044 -0.7971464360461515 0.5971685547162505 0.07994578296647352 -0.1404950983603211 -0.5179024137118283 -0.18990539806306034 0.10275361818425796 -0.16723095296936877 0.12645766741650946 -0.38925952332861286 -0.16646413943346808 0.3834660181446987 0.02255452687249464 0.1932051948764745 0.5318291005404556
datsgm@ -0.7986316008056388 -0.027247448762257893 -0.9074079223713021 -0.3672872751859235 0.26349439858286466 -0.5285743718368956 0.6953504011839812 0.23096289258036348 -0.2094722843763453 0.24653229291010417 -1.802289646072888 -0.23549588698387883 0.2720623785891444 -1.1645907291015725 -0.8048934174908532 -0.7487557942657099 0.3160748272490354 0.3819490405788392 -0.04193938390156369 -0.47307260562148357 -0.24885669157173437 -0.10166672303881726 0.019855640058256227 -0.42156376301621395 0.04699685117862199 0.13351390193457957 1.1570226429145278 0.2369671933191978 0.38200113729194357 1.246756624016497 -0.5821428621808687 0.5793180550782033 -0.35614603849840754 0.8047123035145809 -0.1836110167665246 0.2607656039389563 0.13979350003833527 0.5672503253446826 -0.17938010744681512 -0.36041573800698473 -0.5317730704526543 -0.35415315817765614 -0.4894224199937818 0.502515389273564 -0.001662559243907899 -0.5888462287868247 -1.3078930683916918 -0.602470220549515 0.3156684120875542 0.4339851744610954 -0.5747960760821531 -0.2633759147591061 -0.1981889100595849 0.3027896857360539 -0.677096037964486 0.20668238223771807 -0.055349165240279684 -0.4624058267584554 -0.46532896938906226 -0.41505269299226777 -0.1641747157526329 -0.9134952337078658 -0.7950636625841812 -0.9079410027666592 -0.053274670236364556 0.1443004887867259 0.4375406735243253 0.20054166727695028 1.0604258630838659 0.2836500466916204 0.5127256853092048 -0.2671063649295657 0.6846573783521667 -1.0047967580641493 0.5799953061498034 1.046818860427097 0.41421821621465094 0.08057315730386311 0.044704833562359395 -0.5150734066135354 0.3452322749811926 -0.5458343371340753 -0.05506713267553736 -0.021290363131642894 -0.5682657154989831 -0.453918921864695 0.4703162817893849 0.4766548983177837 -1.558030927090986 -0.6796818047439979 -0.8591328007571492 -0.2732119345585679 0.2549175138780732 0.039414738592358285 0.41157874387953386 0.05683438355652155 0.3585161437843869 0.21724006561217485 0.04927975438351249 0.6698134918639689
prsg2@ 0.1124115655625082 -0.7566970529326473 -0.5592391889497458 -0.26655559511069793 0.1905181170048484 -0.36056657897936834 1.199343640581671 -0.06525897113494127 -0.0008529944861509714 0.2379167713449303 -1.0145996108830693 -0.22927793841921243 0.284748919151095 -0.6514020019985107 -0.567682451153376 -0.717464558017182 0.6492235125463276 -0.10835396543324712 -0.37144567332713 0.39078207421733674 -0.44246453729020546 -0.15511945976191258 0.24341002905584244 0.1447090908481055 0.05751160541212702 -0.053862637615796315 0.6708666754056172 0.6042363605944507 0.0070639957213796765 0.06582067049590938 -0.44408536271517535 0.6110259257705815 0.027880147907389217 0.0901426227134933 0.09147710297032292 -0.19808199534933252 0.8092036788991417 0.1888212059815246 -0.25423754042530633 -0.41939975806029445 -0.658023531178394 -0.5135924578980958 0.1343977285257305 -0.41519233474160083 0.07328005494123482 -0.14004071633589554 -0.4765104659530054 0.17027090530259065 0.31189742127814923 0.19966503083762005 0.1369604697249022 -0.1027092855782753 -0.10629194567585926 0.6811188296471016 0.465059960911791 -0.3796959377107132 0.14829084339989237 0.0517898291259645 -0.48756417569266747 -0.2765542459057038 -0.9250718383903963 -0.8329681000077581 0.09932293682303055 -0.7178248028798275 -0.2073157253080463 0.13751542855458088 0.22114364641258516 -0.5584814981164703 0.4525771173368017 -0.5382018588842398 0.6073251800914575 0.06247809199414339 0.2765389074044055 -1.0685178515422775 -0.13817962483469262 -0.330762841076736 -0.6031930960086455 0.0828923239675631 0.6500049623694405 -1.048356323401971 -0.33848116080085916 0.0735310768506613 -0.4272096616676055 0.3262457552938217 -0.32174317479268255 -0.7942630169262369 0.3036785960332098 0.14993006630565028 0.023141841751983368 -0.16125972434339753 0.0038121678047330983 -0.32806531500901626 -0.27378853401505804 0.2597255907863019 -0.5127055761684854 -0.19823086746485838 0.35069395359381134 -0.14570936237473087 0.04237316106726606 0.12663199522543744
gsg*@ -0.04219272082405431 -0.33014122154031483 -0.3734004286357335 -0.4475813704090459 0.008431800678372382 -0.45588490704340595 0.42738318302801676 0.14359301243509565 0.2608828264022512 -0.328564483278564 -0.5353634703372206 -0.32190016772065844 0.05778098190469401 -0.05775616867201669 -0.1990342067820685 -0.21233656827892575 0.11387004288179534 -0.10185386693903378 -0.015903213951470596 0.3571637835682902 -0.48629901312291623 0.22004995957016946 0.36603459673268457 -0.07035512882683959 -0.14878906607627868 -0.4046302576895271 0.3249142020727907 0.15900217854550908 -0.05457394457289151 0.17337938025593758 -0.332104539424181 0.21756291483129775 0.29787771279258385 0.32121076583862307 -0.05237271792122296 0.10344386952663107 0.12697567915277821 0.04057932488620281 0.31730087727308276 -0.20750374908958164 -0.2910397970676422 -0.35381622305938176 0.20357686976236958 0.08210357927584222 0.17111807750804084 -0.28746803164482115 -0.2637691376890455 0.14600037440125432 0.023293749796492715 -0.007793459985405207 0.1039574391927038 0.0477539749443531 -0.08503240495920181 0.2662292870240552 0.10471316775040967 0.08400589914079838 -0.02181743737044079 -0.09012122797114508 -0.6258838875804629 -0.1899910657746451 -0.5618442825334413 -0.11849452324211597 0.057017922913655636 -0.17543031094329697 -0.003847995959222317 0.04125192461801427 -0.23586579039426786 -0.2763008897272604 0.4888948115706444 -0.27088762345058576 0.16702486821915954 0.1281960551440716 0.12681944868394307 -0.37298136292690676 0.10938994390091726 0.14721947019121476 -0.3701605616403478 0.32958621898932117 0.13431048448596683 -0.8518198981455394 -0.18472292427505765 -0.17880790699273347 0.027749601134232114 -0.030592358884002482 -0.4252995509228536 -0.562042478793966 0.2432270726135799 -0.22239531955548694 -0.32857578604082976 -0.4991019154020718 -0.3816388313206179 -0.31940518895430225 -0.12970483818224499 0.05927096460546766 -0.16790327792721135 -0.26157293695690376 0.35487921214529444 0.044769403834694195 0.006323588490486145 0.15091213666966982
locdum@ -0.5080168475862592 0.6487646721303463 -0.16498659290373324 -0.049889940023422244 -0.21628214828670025 -0.825974740087986 0.035747381299734114 0.6407930023036897 1.0388659216463565 -0.12678218074142933 -0.832637320458889 -0.25301600955426695 0.0620188994333148 -0.07298261895775796 0.9239213764667511 0.43338289484381676 0.19898501904681326 0.3437454286962748 -0.5882911056280136 0.7203689172863961 0.18524807319045067 1.0643219225108624 0.47860608622431755 -0.31442792192101476 -0.13501843493431806 -1.1862132355570794 1.3508591931313276 0.13396070180460812 -0.5685192104429007 0.3492141913622618 0.5185048031853512 -0.42361010713502767 -0.2946437709033489 0.24773588688112796 -1.1955734096467494 -0.5665833123028279 -0.19472357966005802 0.07483317479491233 0.7433934643864631 0.0966056078672409 -0.7361977055668831 -0.8887276709079742 0.509970723465085 -0.573012420348823 0.5672257005237042 -0.08671269416809083 0.013027801550924778 0.2880880983546376 -0.03512572571635246 0.5340157136903144 -0.26166374757885935 1.0640574437566102 -0.29199269264936445 1.4444358609616756 0.5792383942753077 0.815765731036663 0.11625861022621393 -0.33080409914255143 -1.1140617564320565 -0.37112934347242116 -0.10368173313327134 -1.3811478540301323 0.07680192533880473 -0.16857780143618584 -0.7163736432790756 -0.3580602705478668 -0.6338870450854301 -0.05273315802915022 0.9008535265922546 -0.20680290684103966 -0.2870536487549543 0.7869834676384926 0.3231865048408508 0.1891894329339266 -0.323254668712616 -0.07535303756594658 0.5644731178879738 1.356557121872902 0.1935735440114513 -0.24738503396511077 -0.019001485034823417 -0.20442230571061373 -0.32140231858938934 -0.27567018950358035 -0.04470887668430805 -1.6012661144137383 1.0030765049159527 0.14537042640149594 -0.4217361889779568 -0.6744344808161259 0.07099129073321819 -0.011092919192742556 1.3119257397949695 -0.3519680455327034 -0.12668115999549628 -0.47718801274895667 0.6697557283565402 -0.6622817657887936 0.7227020435035229 0.3717017531394958
caprsg1@ -0.6193797886371613 -0.3882153868675232 -0.20366237163543702 -1.1618027210235595 0.39518640041351316 -0.2735351324081421 0.38069634437561034 0.6719215154647827 0.5162752866744995 0.020454055070877074 -0.9287082195281983 -0.2945405304431915 0.6595778197050095 -0.010417509078979491 -0.26624226570129395 -0.001750802993774414 0.48174127340316775 -0.15375051498413086 0.1116546243429184 -0.5572190195322037 -0.5711882412433624 0.503666877746582 0.9122704207897187 0.5323426246643066 -0.5120819479227066 0.0046740412712097164 -0.3523279368877411 0.8584519624710083 0.3167863093316555 -0.3617334485054016 -0.43199275732040404 0.005996882915496826 0.2739069700241089 0.8716417133808136 -0.1443762108683586 -0.0034901738166809083 0.020131826400756836 0.07617466449737549 0.011342938989400864 -0.03950357437133789 -0.6645299911499023 -0.7625547587871552 -0.00756453275680542 -1.0028814911842345 0.13079348504543303 -0.4248692452907562 -0.335389506816864 -0.1564618945121765 0.9944918632507325 0.588029658794403 0.6680638670921326 0.2913144290447235 0.1784344345331192 0.8337704420089722 0.8131742388010025 -0.31923608779907225 -0.24326796531677247 0.31002929210662844 -0.24224852547049522 -0.775510287284851 -0.20580159425735473 -0.022576069831848143 -0.3764343781396747 -0.5723036885261535 0.05573772192001343 -0.4913622736930847 -0.32039055824279783 -0.062264281511306765 0.8776275455951691 -0.7136961579322815 -0.3285800278186798 0.5800095230340958 0.6868075847625732 -0.5331206917762756 0.2758060693740845 -0.845652049779892 -1.040195819735527 0.33360201120376587 1.0239283442497253 -1.3069795370101929 -0.02069554924964905 -0.40269364416599274 0.5310921148629859 0.7170545190572739 -0.8421565055847168 -0.9543076753616333 0.8600857973098754 0.14055516123771666 -0.43465885519981384 -0.08144132196903228 -0.24245197772979737 -0.14045262336730957 0.1341005064547062 0.7423105761408806 0.2188951015472412 0.3234188318252563 1.580579650402069 0.41858830749988557 0.45701382160186765 0.29975166320800783
accsg*@ -0.0114674299598454 -0.5403193992055105 -0.3779924696612501 -0.4621054206244246 0.5272429797374559 -0.23211714937658368 0.9898784083877495 0.3843265157527552 0.02732710290454819 -0.01071102622740283 -0.7610427388352549 -0.2624555628992126 0.07138955748701345 -0.24676067175756314 -0.7689322872076206 -0.6127768951429132 0.1726377212001892 -0.3692592742021926 -0.2693401598734056 -0.03065304212762924 -0.4390712657909907 0.24996421142609535 0.6387692370457564 0.0976358377291057 -0.08775921667365547 -0.1998365968465805 0.22991653604009105 -0.07573429254179229 0.1551295892965651 0.33127597804198006 -0.061159670280437624 0.439592442737368 -0.2581080379867982 0.12861896145665003 -0.6585426029420185 0.5630222223476021 -0.11282728773034262 0.3917256749407974 0.08105617004284958 -0.15855676549748926 -0.6583263221347403 -0.2724289464245656 0.05512326041203059 -0.03369289561883061 -0.07521866166142992 -0.39725330976133577 -0.433479562134086 -0.022805185152028135 0.35317915753868523 0.5796108084792149 0.5418109081819386 0.15099531978725672 -0.059905013415270936 0.42066378525631154 -0.10060679892490725 0.13760836466499968 0.06589446359029609 -0.2227672671754203 0.020490213339830452 -0.17662309279698812 -0.1446853312412779 -0.6424674642478635 0.11394789710105536 0.026219970853385812 -0.18451983352264245 0.2980398635218243 0.13742622523429152 -0.35614983763121916 0.8257923508118726 -0.2578433118342327 0.06887211815682714 0.08587904475227802 0.400043207148235 -0.7730390097566707 0.21526052026513093 -0.1488172845722561 -0.6502829963218666 -0.11211940436484572 0.5673404858408574 -0.6784616251905521 -0.24379473067067206 -0.26418844945059566 -0.14736867102677237 -0.2653865434987816 -0.13750370741336645 -0.8395006855180164 0.5846202685804425 -0.26202126833314665 -0.6345042297226227 0.09943266879923329 -0.41777390252776486 0.23390334402908108 -0.1395280614584506 0.04000292306843989 -0.28545645529593894 -0.3253435939104257 0.6148488330626916 0.061570691959765146 0.1395142021126108 0.5186022786858553
inf@ 0.7075058288829147 -0.8456886952173127 -0.8319151039812283 -0.17524441179357336 0.47277820343750226 -0.0927246177578309 1.4386270670435728 -0.36105184809599256 0.36705086678074994 -0.5345854504455293 -0.4607572158089908 -0.5888649521007713 0.16692883082172308 -0.5705814143932475 -1.2489764331660418 -0.46562404550700554 -0.09282420159037438 -0.4867218111194 -0.2909878466546459 -0.03003073071373823 0.8807498211649206 0.030572916534286385 0.9852404426974855 -0.3124802835605282 -0.370606270063295 0.6146829108298207 0.3905503693728643 -0.057491017867042506 0.41681839365142237 0.16108195142039985 0.3407670142856884 0.8879471572479928 0.6634792518205845 0.7053632152321866 -0.33799625122033844 0.7291089699473137 -0.19871569260150423 0.15276898535873482 0.25293133479775265 0.15113410992897414 -0.22505608010931769 -0.705912481979072 -0.7307539139814426 -0.020318374091311618 -0.18743079775019014 -0.3953812508903693 -0.4982407886515776 0.03235267695029934 0.6180813380867658 1.154508399702896 -0.38373001018218256 0.26124946721039405 -0.11634574271738529 -0.07631243286525069 0.263219392337719 0.9436788090808762 -0.13508479416868374 -0.25885451009501836 -0.09060239082005996 -0.0309000688230626 0.5409764485855068 -1.0018851746657473 0.003655268149905309 -0.6560247802297683 -0.643535590014758 0.5065903682979949 0.49166721899474186 -0.39597460660116224 0.9562994199816932 -0.5979021254060239 0.3114379636397475 0.2991115060589422 0.2105271759608181 -0.8831179345021823 0.19486147580144011 -0.3482953554215652 -0.957335766038563 0.48642411559178544 1.001160328845065 -1.7454082936115545 0.10534694931137072 -0.03140363164990063 -0.18376821786545908 -0.11007595533423681 -0.7289345482206283 -0.8703229938130072 0.9630964190332856 -0.882824800851106 -1.012762634813843 -0.15706282764778576 -0.6032578536892276 0.31417177710682154 -0.6724358876537295 1.0126606342925901 0.22196016569231616 -0.32747121451776906 0.9298097394540867 0.504748308935363 -0.2733296977173822 0.8404751276372331
accduf@ 0.0815529372387876 -0.5873768826325735 -0.7165448013693094 -0.4770053775670628 0.3718154054755966 -0.33430855845411617 0.6757467646772662 0.7166412960117062 -0.1793475723825395 0.00011283574470629294 -0.7375651456338043 -0.12942456748957434 -0.02586970922614758 -0.3662056194152683 -0.35089940453569096 -0.06163712513322631 0.6683276686817408 -0.11947737676867594 -0.10143930884078145 -0.16339255316415802 -0.2521529345443317 0.18697968839357296 0.689407373390471 -0.44502560920470086 0.17210639760984728 -0.277980087713028 0.40505761526098166 0.18406012390429774 0.5133020925956467 0.5280117551640918 -0.15852386900223792 0.31296977499247686 0.01583982538431883 0.28656866242333007 -0.4487468864923964 0.041171753235782184 0.16362409891250232 0.32096238581774134 0.04106358663799862 0.12724748284866413 -0.7066176794469357 -0.28831075719790533 -0.2108725835569203 -0.09736462015037735 0.03685343811957864 -0.05575266961629192 -0.11398521143322189 -0.051818805281072855 -0.0804519853554666 0.1936940467179132 -0.07545431396768738 0.12898959778249264 0.1799761193494002 0.5751451555018624 0.33351087383925915 0.05436826217919588 -0.07152168551692739 -0.28124752152507426 -0.397095350548625 -0.7511625749369463 -0.10457973189962406 -1.2750016289452712 -0.04146732461716359 -0.559804626274854 -0.327076406936006 0.1944355291003982 -0.03155107233518114 -0.3628139198214437 0.38901447256406146 -0.40581815449210507 0.1831433535165464 0.13549269254629812 0.6546175054584941 -0.3390085430194934 -0.08305810430708031 0.2540524289167176 -0.015038750289628902 -0.026009716209955513 0.10823021146158378 -0.5225613874693712 -0.2766586552631149 -0.25326228483269614 -0.20324126537889242 0.16749522097719213 -0.24091237387619913 -0.7186793383831779 0.3719934678908127 -0.17248805317406854 -0.4946593036875129 -0.33320967534867424 -0.42858631210401654 -0.1376448752513776 0.022471727958569925 -0.1422063530383942 0.18603812057214478 0.11902873280147712 0.559545000908353 -0.2495180469316741 0.19309052566920096 0.7263423985180756
datsgn@ -0.6839268195560608 0.15989982028459682 -0.7863211373145553 -0.27149991023129433 0.3429010647466813 -0.4536448659953372 0.7349268920805262 0.1494925536921826 -0.0875941067505842 0.11121108479284007 -1.5285025930952751 -0.0643495889915817 0.2762139815002166 -0.9957291248372231 -0.6121011282178177 -0.6644163731185869 0.15998362629920587 0.21463089033790017 0.07540118839891477 -0.3209039227951361 -0.3251587898823722 0.020921208970676893 0.015296459840289477 -0.18011078940725875 -0.2462403459966868 0.26136209262834714 0.927078015502842 0.33183639860530006 0.13177559526915522 1.0553817198365585 -0.6278389923317337 0.5150690354920667 -0.2156084205569892 0.7959713180142658 -0.3049818257050724 0.4287012369725211 0.162571610304816 0.5060839958638809 -0.01354917644084185 -0.3227850318640128 -0.39860714612335996 -0.38167335407744196 -0.39162183047711163 0.45218044305327293 -0.04435928170194571 -0.5524968549973149 -1.192654991929216 -0.6012582851081402 0.5118863555420746 0.4369592061373352 -0.61539786745762 -0.0744508507169098 -0.22717615782186903 0.18197583259436592 -0.47240820306556663 0.31797916653041525 -0.07186680784363342 -0.5431273232867149 -0.6122845472960636 -0.5002543648769116 -0.12086768677436757 -0.7371834919563142 -0.5180651460956226 -0.817724396956378 0.10466237190639836 0.054273668548156476 0.2750985011800952 0.014348379742413032 0.9461313720749712 0.08595584801815707 0.5511642060745722 -0.1884727882456848 0.5143263581283819 -0.7981135913695412 0.6582027489624532 0.8871166257337592 0.1782890708967187 -0.04005265518509109 0.13801176503471946 -0.7255594125338669 0.3806371680278888 -0.561479587846532 -0.13655355433537358 -0.15902422569777774 -0.6630292793885729 -0.4537851857021451 0.42897193139183454 0.39781755326722545 -1.2914167495294548 -0.41734957557985153 -0.7426468344597981 0.09001463339075275 0.4156759762387166 0.1288142041249693 0.631595433229345 0.10571877054613212 0.46361255260377093 0.2219771369007127 -0.21477132864382076 0.4207126924275667
